{"learner":{"attributes":{"scikit_learn":"{\"n_estimators\": 30, \"objective\": \"reg:squarederror\", \"max_depth\": 6, \"learning_rate\": 0.6, \"verbosity\": null, \"booster\": \"gbtree\", \"tree_method\": null, \"gamma\": null, \"min_child_weight\": null, \"max_delta_step\": null, \"subsample\": null, \"colsample_bytree\": null, \"colsample_bylevel\": null, \"colsample_bynode\": null, \"reg_alpha\": 40, \"reg_lambda\": null, \"scale_pos_weight\": null, \"base_score\": null, \"missing\": NaN, \"num_parallel_tree\": null, \"kwargs\": {}, \"random_state\": null, \"n_jobs\": null, \"monotone_constraints\": null, \"interaction_constraints\": null, \"importance_type\": \"gain\", \"gpu_id\": null, \"validate_parameters\": null, \"_estimator_type\": \"regressor\"}"},"feature_names":["size","rooms","bathrooms","latitude","longitude","floorNumeric","propertyType_duplex","propertyType_flat","propertyType_penthouse","propertyType_studio"],"feature_types":["int","int","int","float","float","int","int","int","int","int"],"gradient_booster":{"model":{"gbtree_model_param":{"num_trees":"30","size_leaf_vector":"0"},"tree_info":[0,0,0,0,0,0,0,0,0,0,0,0,0,0,0,0,0,0,0,0,0,0,0,0,0,0,0,0,0,0],"trees":[{"base_weights":[6.5718644E5,4.6660153E5,1.2421574E6,3.6590153E5,6.9104894E5,1.1094549E6,2.2549375E6,2.7362084E5,4.16892E5,7.871801E5,5.206912E5,1.3938216E6,9.811149E5,2.4139028E6,5.494863E5,3.146695E5,2.3220234E5,4.776506E5,3.4478034E5,7.108525E5,8.945717E5,5.0373962E5,1.4419652E6,8.6238344E5,1.1669476E6,6.4897975E5,2.4795442E6,4.147975E4,3.1812728E5,1.5849703E5,2.4825392E5,3.6999475E5,5.188177E5,2.62663E5,3.6103172E5,1.7947975E5,7.1610406E5,9.401341E5,6.9221844E5,1.2114579E6,6.9796944E5,1.6142796E6,2.8047505E6,1.7415958E5,3.269279E5,4.500764E5,5.713585E5,3.6789462E5,1.9790958E5,2.0947975E5,7.206056E5,2.9352255E6,7.4997975E5],"categories":[],"categories_nodes":[],"categories_segments":[],"categories_sizes":[],"default_left":[true,true,true,true,true,true,true,true,true,true,false,true,true,true,false,true,true,true,true,true,false,false,false,true,true,false,true,false,true,false,false,false,true,false,true,false,true,false,false,false,false,false,true,false,false,false,false,false,false,false,false,false,false],"id":0,"left_children":[1,3,5,7,9,11,13,15,17,19,-1,21,23,25,-1,27,29,31,33,35,-1,-1,-1,37,39,-1,41,-1,43,-1,-1,-1,45,-1,47,-1,49,-1,-1,-1,-1,-1,51,-1,-1,-1,-1,-1,-1,-1,-1,-1,-1],"loss_changes":[8.180893E13,1.2381543E13,2.1824222E13,1.7116116E12,2.4068594E12,4.544713E12,4.0956204E12,1.666355E11,9.218703E11,2.4929685E11,0E0,1.3304332E12,1.5309461E12,4.7603673E11,0E0,5.102371E10,4.8184426E10,3.9301258E11,6.1284024E10,6.1194895E10,0E0,0E0,0E0,3.2820848E11,3.1088181E10,0E0,2.5579382E11,0E0,2.7931967E10,0E0,0E0,0E0,7.869353E10,0E0,3.351878E10,0E0,1.8119393E9,0E0,0E0,0E0,0E0,0E0,7.475508E11,0E0,0E0,0E0,0E0,0E0,0E0,0E0,0E0,0E0,0E0],"parents":[2147483647,0,0,1,1,2,2,3,3,4,4,5,5,6,6,7,7,8,8,9,9,11,11,12,12,13,13,15,15,16,16,17,17,18,18,19,19,23,23,24,24,26,26,28,28,32,32,34,34,36,36,42,42],"right_children":[2,4,6,8,10,12,14,16,18,20,-1,22,24,26,-1,28,30,32,34,36,-1,-1,-1,38,40,-1,42,-1,44,-1,-1,-1,46,-1,48,-1,50,-1,-1,-1,-1,-1,52,-1,-1,-1,-1,-1,-1,-1,-1,-1,-1],"split_conditions":[1.605E2,1.145E2,3.51E2,6.15E1,-9.141106E0,3.8724297E1,8.645E2,-9.141619E0,-9.141264E0,1.405E2,3.1241472E5,1.5E0,3.5E0,5E-1,3.296918E5,2.45E1,4.05E1,-9.157234E0,7.25E1,1.5E0,5.3674306E5,3.0224378E5,8.651792E5,-9.142353E0,3.875872E1,3.8938788E5,3.69E2,2.4887852E4,-9.163679E0,9.509822E4,1.4895236E5,2.2199686E5,8.3E1,1.5759781E5,3.8758896E1,1.0768785E5,-9.174496E0,5.640805E5,4.153311E5,7.2687475E5,4.187817E5,9.685678E5,-9.145603E0,1.0449575E5,1.9615675E5,2.7004584E5,3.4281512E5,2.2073678E5,1.1874575E5,1.2568785E5,4.323634E5,1.7611354E6,4.4998788E5],"split_indices":[0,0,0,0,4,3,0,4,4,0,0,2,2,5,0,0,0,4,0,1,0,0,0,4,3,0,0,0,4,0,0,0,0,0,3,0,4,0,0,0,0,0,4,0,0,0,0,0,0,0,0,0,0],"split_type":[0,0,0,0,0,0,0,0,0,0,0,0,0,0,0,0,0,0,0,0,0,0,0,0,0,0,0,0,0,0,0,0,0,0,0,0,0,0,0,0,0,0,0,0,0,0,0,0,0,0,0,0,0],"sum_hessian":[7.38E2,5.58E2,1.8E2,3.87E2,1.71E2,1.61E2,1.9E1,1.4E2,2.47E2,1.07E2,6.4E1,4.7E1,1.14E2,1.7E1,2E0,6.7E1,7.3E1,1.31E2,1.16E2,6.7E1,4E1,3E0,4.4E1,7.3E1,4.1E1,1E0,1.6E1,1E0,6.6E1,1.5E1,5.8E1,3.9E1,9.2E1,2.2E1,9.4E1,1E0,6.6E1,4.7E1,2.6E1,3.6E1,5E0,6E0,1E1,5E0,6.1E1,4.4E1,4.8E1,8.9E1,5E0,1E0,6.5E1,9E0,1E0],"tree_param":{"num_deleted":"0","num_feature":"10","num_nodes":"53","size_leaf_vector":"0"}},{"base_weights":[2.772295E5,2.201767E5,7.254997E5,1.5126208E5,3.1839397E5,5.836321E5,1.143199E6,1.2999934E5,2.0122653E5,3.781463E5,2.3456961E5,8.464848E5,5.1310562E5,1.5774518E6,6.444929E5,1.4862895E5,1.00703414E5,1.865794E5,2.7382366E5,2.8820628E5,4.996278E5,3.4711097E5,2.0573428E5,9.0299975E5,1.1239016E5,4.6060022E5,7.923353E5,1.8457224E6,7.1360525E5,9.831615E4,1.7008631E5,9.46397E4,2.3772178E5,1.4307644E5,2.1290992E5,3.2128425E5,9.5653375E4,3.2047478E5,2.0300277E5,3.7187644E5,6.362739E5,2.791917E5,4.5276206E5,1.0870519E5,2.2278102E5,2.2783822E5,4.9563662E5,9.114463E5,3.2969178E5,5.8638402E4,1.15911664E5,1.4526356E5,2.1656125E5,1.1216162E5,7.076482E4,1.4852795E5,7.520217E4,2.2968208E5,1.3589136E5,1.08395625E5,2.2322188E4,3.334524E5,3.9192883E4,3.54395E4,2.0789477E5,1.1341073E5,3.837435E5,6.508607E5,1.0660822E5,1.2804382E5,-1.7763479E4,1.8036477E5,2.7944225E5,2.5474272E5,9.8069836E4,1.0653354E5,5.1331116E5],"categories":[],"categories_nodes":[],"categories_segments":[],"categories_sizes":[],"default_left":[true,true,true,true,true,true,true,true,true,true,true,true,true,true,false,true,true,true,true,true,true,true,true,false,false,true,true,false,false,true,true,true,false,true,true,false,true,true,true,true,true,false,false,true,true,true,true,false,false,false,false,false,false,false,false,false,false,false,false,false,false,false,false,false,false,false,false,false,false,false,false,false,false,false,false,false,false],"id":1,"left_children":[1,3,5,7,9,11,13,15,17,19,21,23,25,27,-1,29,31,33,35,37,39,41,43,-1,-1,45,47,-1,-1,49,51,53,-1,55,57,-1,59,61,63,65,67,-1,-1,69,71,73,75,-1,-1,-1,-1,-1,-1,-1,-1,-1,-1,-1,-1,-1,-1,-1,-1,-1,-1,-1,-1,-1,-1,-1,-1,-1,-1,-1,-1,-1,-1],"loss_changes":[1.8740205E13,4.398795E12,4.2511326E12,3.8603116E11,1.2636243E12,7.520471E11,3.3145445E12,1.3510954E11,7.0111986E10,1.5604342E12,3.0175973E11,3.9631926E11,4.1203584E11,1.00022826E12,0E0,1.6247738E11,6.888122E10,8.177792E10,1.1300451E11,1.878655E11,8.9803194E11,3.1429755E10,1.312479E11,0E0,0E0,2.7033757E11,8.519549E10,0E0,0E0,2.9499982E10,1.0119519E11,3.6817273E10,0E0,3.6221092E9,4.4987843E10,0E0,2.247168E9,2.2418974E11,1.557463E10,6.6880274E10,1.6236675E11,0E0,0E0,4.1410593E10,1.3944514E11,2.9341123E9,2.2037922E11,0E0,0E0,0E0,0E0,0E0,0E0,0E0,0E0,0E0,0E0,0E0,0E0,0E0,0E0,0E0,0E0,0E0,0E0,0E0,0E0,0E0,0E0,0E0,0E0,0E0,0E0,0E0,0E0,0E0,0E0],"parents":[2147483647,0,0,1,1,2,2,3,3,4,4,5,5,6,6,7,7,8,8,9,9,10,10,11,11,12,12,13,13,15,15,16,16,17,17,18,18,19,19,20,20,21,21,22,22,25,25,26,26,29,29,30,30,31,31,33,33,34,34,36,36,37,37,38,38,39,39,40,40,43,43,44,44,45,45,46,46],"right_children":[2,4,6,8,10,12,14,16,18,20,22,24,26,28,-1,30,32,34,36,38,40,42,44,-1,-1,46,48,-1,-1,50,52,54,-1,56,58,-1,60,62,64,66,68,-1,-1,70,72,74,76,-1,-1,-1,-1,-1,-1,-1,-1,-1,-1,-1,-1,-1,-1,-1,-1,-1,-1,-1,-1,-1,-1,-1,-1,-1,-1,-1,-1,-1,-1],"split_conditions":[2.095E2,1.145E2,4.5E0,1.5E0,-9.1435375E0,3.8718513E1,3.872234E1,-9.137421E0,4.5E0,-9.148724E0,3.872062E1,-9.129852E0,3.57E2,-9.147598E0,3.8669575E5,-9.149243E0,-9.102522E0,9.1E1,3.87583E1,3.5E0,1.48E2,3.5E0,1.25E2,5.417999E5,6.743409E4,-9.155661E0,7.615E2,1.1074335E6,4.2816316E5,3.872265E1,7.05E1,-9.129253E0,1.4263308E5,-9.127455E0,3.874153E1,1.9277056E5,3.8766388E1,3.8758133E1,-9.172071E0,1.5E0,5E-1,1.6751502E5,2.7165725E5,-9.121958E0,3.8733604E1,5.5E0,3.8720325E1,5.468678E5,1.9781508E5,3.5183043E4,6.9547E4,8.715814E4,1.2993676E5,6.729698E4,4.2458895E4,8.911677E4,4.5121305E4,1.3780925E5,8.153482E4,6.503738E4,1.3393313E4,2.0007145E5,2.351573E4,2.1263701E4,1.2473687E5,6.804644E4,2.3024611E5,3.9051644E5,6.3964934E4,7.68263E4,-1.0658088E4,1.0821887E5,1.6766536E5,1.5284564E5,5.8841902E4,6.3920125E4,3.0798672E5],"split_indices":[0,0,2,2,4,3,3,4,5,4,3,4,0,4,0,4,4,0,3,1,0,5,0,0,0,4,0,0,0,3,0,4,0,4,3,0,3,3,4,2,6,0,0,4,3,1,3,0,0,0,0,0,0,0,0,0,0,0,0,0,0,0,0,0,0,0,0,0,0,0,0,0,0,0,0,0,0],"split_type":[0,0,0,0,0,0,0,0,0,0,0,0,0,0,0,0,0,0,0,0,0,0,0,0,0,0,0,0,0,0,0,0,0,0,0,0,0,0,0,0,0,0,0,0,0,0,0,0,0,0,0,0,0,0,0,0,0,0,0,0,0,0,0,0,0,0,0,0,0,0,0,0,0,0,0,0,0],"sum_hessian":[7.38E2,6.56E2,8.2E1,3.87E2,2.69E2,6.3E1,1.9E1,2.74E2,1.13E2,1.55E2,1.14E2,1.1E1,5.2E1,9E0,1E1,1.65E2,1.09E2,9.7E1,1.6E1,9.1E1,6.4E1,2.1E1,9.3E1,1E1,1E0,4.6E1,6E0,6E0,3E0,5.1E1,1.14E2,1.06E2,3E0,3.9E1,5.8E1,1.2E1,4E0,6.4E1,2.7E1,3.5E1,2.9E1,1.5E1,6E0,1.5E1,7.8E1,7E0,3.9E1,4E0,2E0,1.7E1,3.4E1,7.7E1,3.7E1,5.9E1,4.7E1,3.5E1,4E0,4.6E1,1.2E1,3E0,1E0,6.1E1,3E0,1E0,2.6E1,2E0,3.3E1,2.8E1,1E0,1.3E1,2E0,4.7E1,3.1E1,5E0,2E0,2E0,3.7E1],"tree_param":{"num_deleted":"0","num_feature":"10","num_nodes":"77","size_leaf_vector":"0"}},{"base_weights":[1.2031433E5,8.3290625E4,3.0150812E5,5.7752832E4,1.14243625E5,1.1862591E6,2.7747722E5,2.2455691E4,6.6854336E4,1.6392378E5,8.905621E4,2.2656434E5,4.889852E5,1.6825992E4,5.5110266E4,9.7343984E4,4.6429258E4,1.3361461E5,2.9953897E5,6.8434484E4,1.5812892E5,4.2531675E5,1.8969203E5,8.089135E5,4.0054828E5,4.1526914E4,8.755578E3,-1.1181371E4,1.0058242E5,2.870648E4,7.3395016E4,1.6502647E5,2.9038082E4,1.0983258E5,4.7551125E5,7.2951E4,-7.9162847E3,1.710953E5,-7.8155234E3,1.2088244E5,4.9134847E5,8.239944E3,2.0796212E5,2.3229588E5,9.2367406E5,4.439276E5,1.8161684E5,8.312904E3,5.284538E4,1.8177645E4,-2.2743906E3,1.8956182E4,-5.0817016E4,1.2544724E5,8.171453E4,2.3230814E4,7.089408E4,-1.836175E3,7.8441695E4,1.3122322E5,2.5543175E5,-4.1342547E4,7.354199E4,1.3510984E5,1.4228083E4,5.482811E5,1.7145448E5,1.5197555E4,7.992694E4,4.197046E4,-5.6227773E4,1.9566733E5,8.0265664E4,3.68243E4,-7.08875E4,1.65615E4,1.5012225E5,3.45728E5,6.9614744E5,-2.2699061E5,1.0788162E5,2.2706956E5,6.919712E4,5.215626E5,2.2760212E5],"categories":[],"categories_nodes":[],"categories_segments":[],"categories_sizes":[],"default_left":[true,true,true,true,true,false,true,true,true,true,true,true,true,true,false,true,true,true,true,true,true,true,true,true,true,true,true,true,true,true,true,true,true,true,true,true,true,true,true,true,true,true,true,false,false,true,false,false,false,false,false,false,false,false,false,false,false,false,false,false,false,false,false,false,false,false,false,false,false,false,false,false,false,false,false,false,false,false,false,false,false,false,false,false,false],"id":2,"left_children":[1,3,5,7,9,-1,11,13,15,17,19,21,23,25,-1,27,29,31,33,35,37,39,41,43,45,47,49,51,53,55,57,59,61,63,65,67,69,71,73,75,77,79,81,-1,-1,83,-1,-1,-1,-1,-1,-1,-1,-1,-1,-1,-1,-1,-1,-1,-1,-1,-1,-1,-1,-1,-1,-1,-1,-1,-1,-1,-1,-1,-1,-1,-1,-1,-1,-1,-1,-1,-1,-1,-1],"loss_changes":[4.932427E12,4.7953478E11,2.3284532E12,1.07401314E11,3.320059E11,0E0,1.2137078E12,1.2122153E10,1.6299524E11,3.3811517E11,2.5410758E11,6.594704E11,3.2669277E11,1.1993889E10,0E0,3.8733677E10,7.5788026E10,2.4814066E11,4.8187913E11,5.05818E10,9.171501E10,2.4211489E11,2.8669536E11,5.007999E10,1.0929229E11,5.19723E9,5.030383E9,5.742656E9,3.8532088E10,2.1449826E10,2.4445813E10,1.4676958E11,6.255375E10,1.9821257E10,8.297526E10,5.397663E10,2.4051403E10,7.132663E10,1.3873834E10,9.70838E9,1.1715582E11,2.3543223E11,1.9373962E11,0E0,0E0,1.4997206E11,0E0,0E0,0E0,0E0,0E0,0E0,0E0,0E0,0E0,0E0,0E0,0E0,0E0,0E0,0E0,0E0,0E0,0E0,0E0,0E0,0E0,0E0,0E0,0E0,0E0,0E0,0E0,0E0,0E0,0E0,0E0,0E0,0E0,0E0,0E0,0E0,0E0,0E0,0E0],"parents":[2147483647,0,0,1,1,2,2,3,3,4,4,6,6,7,7,8,8,9,9,10,10,11,11,12,12,13,13,15,15,16,16,17,17,18,18,19,19,20,20,21,21,22,22,23,23,24,24,25,25,26,26,27,27,28,28,29,29,30,30,31,31,32,32,33,33,34,34,35,35,36,36,37,37,38,38,39,39,40,40,41,41,42,42,45,45],"right_children":[2,4,6,8,10,-1,12,14,16,18,20,22,24,26,-1,28,30,32,34,36,38,40,42,44,46,48,50,52,54,56,58,60,62,64,66,68,70,72,74,76,78,80,82,-1,-1,84,-1,-1,-1,-1,-1,-1,-1,-1,-1,-1,-1,-1,-1,-1,-1,-1,-1,-1,-1,-1,-1,-1,-1,-1,-1,-1,-1,-1,-1,-1,-1,-1,-1,-1,-1,-1,-1,-1,-1],"split_conditions":[1.885E2,1.005E2,3.8707573E1,5.05E1,3.8723534E1,7.117555E5,3.315E2,5E0,1.5E0,3.8721897E1,5.5E0,3.8718403E1,-9.160639E0,5E-1,3.306616E4,5E-1,1.5E0,1.53E2,1.475E2,1.745E2,1.15E1,3.8710754E1,3.8721764E1,5E-1,3.874251E1,5E-1,3.8720085E1,8.25E1,3.872522E1,9.4E1,-9.168171E0,1.405E2,-9.15123E0,3.5E0,3E0,1.5E0,3.5E0,-9.144272E0,1.545E2,2.015E2,-9.143739E0,2.675E2,3.8758698E1,1.3937753E5,5.5420444E5,4.93E2,1.0897011E5,4.9877427E3,3.1707229E4,1.0906587E4,-1.3646344E3,1.1373709E4,-3.049021E4,7.526835E4,4.902872E4,1.3938489E4,4.253645E4,-1.1017051E3,4.706502E4,7.873394E4,1.5325906E5,-2.480553E4,4.4125195E4,8.106591E4,8.536851E3,3.289687E5,1.02872695E5,9.118533E3,4.7956164E4,2.5182277E4,-3.3736664E4,1.174004E5,4.81594E4,2.2094582E4,-4.25325E4,9.9369E3,9.007335E4,2.0743681E5,4.1768847E5,-1.3619438E5,6.4728973E4,1.3624175E5,4.1518273E4,3.1293756E5,1.3656128E5],"split_indices":[0,0,3,0,3,0,0,5,1,3,5,3,4,1,0,5,2,0,0,0,5,3,3,7,3,5,3,0,3,0,4,0,4,1,1,2,5,4,0,0,4,0,3,0,0,0,0,0,0,0,0,0,0,0,0,0,0,0,0,0,0,0,0,0,0,0,0,0,0,0,0,0,0,0,0,0,0,0,0,0,0,0,0,0,0],"split_type":[0,0,0,0,0,0,0,0,0,0,0,0,0,0,0,0,0,0,0,0,0,0,0,0,0,0,0,0,0,0,0,0,0,0,0,0,0,0,0,0,0,0,0,0,0,0,0,0,0,0,0,0,0,0,0,0,0,0,0,0,0,0,0,0,0,0,0,0,0,0,0,0,0,0,0,0,0,0,0,0,0,0,0,0,0],"sum_hessian":[7.38E2,6.14E2,1.24E2,3.38E2,2.76E2,2E0,1.22E2,7E1,2.68E2,9.1E1,1.85E2,1E2,2.2E1,6.1E1,9E0,1.06E2,1.62E2,7.6E1,1.5E1,1.44E2,4.1E1,1.4E1,8.6E1,3E0,1.9E1,1.4E1,4.7E1,3E0,1.03E2,9.9E1,6.3E1,5.8E1,1.8E1,8E0,7E0,1.36E2,8E0,3.8E1,3E0,3E0,1.1E1,8E0,7.8E1,1E0,2E0,1.5E1,4E0,4E0,1E1,2.5E1,2.2E1,2E0,1E0,4.2E1,6.1E1,8.9E1,1E1,4E0,5.9E1,4.4E1,1.4E1,7E0,1.1E1,6E0,2E0,5E0,2E0,1.5E1,1.21E2,4E0,4E0,2.9E1,9E0,2E0,1E0,1E0,2E0,8E0,3E0,2E0,6E0,6.8E1,1E1,1E1,5E0],"tree_param":{"num_deleted":"0","num_feature":"10","num_nodes":"85","size_leaf_vector":"0"}},{"base_weights":[5.3605062E4,4.6262387E4,3.024498E5,2.788016E4,9.955896E4,7.1175544E5,2.2190211E5,3.382163E4,-4.0420024E3,8.849097E4,1.9671208E5,7.63593E5,1.4938411E5,2.6537037E4,7.319502E4,-1.2257653E4,1.0616701E5,1.5102916E5,6.273793E4,-5.5236043E4,2.3166034E5,-3.311525E3,1.9325083E5,4.1043973E4,1.2631584E4,1.2678544E5,5.4967758E4,1.261284E3,-1.0702034E5,1.1886219E5,2.1325562E4,1.765559E5,2.0791518E4,1.7618266E4,1.0908778E5,4.2657812E4,-1.25531875E5,2.4863495E5,-1.14594375E4,-9.054254E4,8.501E4,2.0691572E5,7.783625E3,2.203006E5,3.88956E4,-5.230745E3,1.8263584E4,2.2979781E4,1.81314E5,3.619067E4,1.01372805E5,6.4770923E3,-3.538507E4,-2.3643172E4,-1.3937011E5,1.0329532E5,2.3791855E5,8.611738E4,-8.238516E4,3.0854148E4,-7.557572E4,-2.5705625E3,1.4721245E5,1.7512002E5,3.6063284E5,3.4855625E4,-1.7068944E5,2.2159488E5,1.53629375E4],"categories":[],"categories_nodes":[],"categories_segments":[],"categories_sizes":[],"default_left":[true,true,true,true,true,false,true,true,true,true,true,false,true,true,true,true,true,true,true,true,true,true,true,true,true,true,true,true,true,false,false,true,true,true,true,false,false,true,false,true,false,true,false,false,false,false,false,false,false,false,false,false,false,false,false,false,false,false,false,false,false,false,false,false,false,false,false,false,false],"id":3,"left_children":[1,3,5,7,9,-1,11,13,15,17,19,-1,21,23,25,27,29,31,33,35,37,39,41,43,45,47,49,51,53,-1,-1,55,57,59,61,-1,-1,63,-1,65,-1,67,-1,-1,-1,-1,-1,-1,-1,-1,-1,-1,-1,-1,-1,-1,-1,-1,-1,-1,-1,-1,-1,-1,-1,-1,-1,-1,-1],"loss_changes":[1.336285E12,7.016304E11,5.343639E11,1.01798085E11,1.8043476E11,0E0,6.3225915E11,1.2769585E11,7.8259905E10,2.5947773E11,1.7129577E11,0E0,1.2121617E11,7.674028E10,6.140009E10,1.02626484E11,3.922051E9,1.5589927E11,2.4902776E11,2.6002821E10,6.8888625E10,4.6219125E10,3.3862287E10,6.343649E10,1.9914381E10,9.205162E10,4.3378737E10,1.3799002E10,2.3670645E10,0E0,0E0,1.552291E11,6.7755893E10,7.880732E10,2.5154355E11,0E0,0E0,6.0327264E10,0E0,3.610574E10,0E0,3.3140048E10,0E0,0E0,0E0,0E0,0E0,0E0,0E0,0E0,0E0,0E0,0E0,0E0,0E0,0E0,0E0,0E0,0E0,0E0,0E0,0E0,0E0,0E0,0E0,0E0,0E0,0E0,0E0],"parents":[2147483647,0,0,1,1,2,2,3,3,4,4,6,6,7,7,8,8,9,9,10,10,12,12,13,13,14,14,15,15,16,16,17,17,18,18,19,19,20,20,21,21,22,22,23,23,24,24,25,25,26,26,27,27,28,28,31,31,32,32,33,33,34,34,37,37,39,39,41,41],"right_children":[2,4,6,8,10,-1,12,14,16,18,20,-1,22,24,26,28,30,32,34,36,38,40,42,44,46,48,50,52,54,-1,-1,56,58,60,62,-1,-1,64,-1,66,-1,68,-1,-1,-1,-1,-1,-1,-1,-1,-1,-1,-1,-1,-1,-1,-1,-1,-1,-1,-1,-1,-1,-1,-1,-1,-1,-1,-1],"split_conditions":[4.5E0,2.5E0,3.8710022E1,3.8742065E1,8.5E0,4.2705328E5,-9.159685E0,4.5E0,-9.102522E0,3.872322E1,3.873999E1,4.581558E5,2.615E2,-9.142382E0,3.872474E1,1.415E2,3.8757843E1,-9.131302E0,3.8736942E1,1.965E2,5.5E0,3.8721058E1,8.5E0,3.8705704E1,-9.137514E0,3.8710876E1,3.8740044E1,-9.122353E0,-9.156509E0,7.131731E4,1.2795338E4,-9.151274E0,2E0,3.8733746E1,-9.15177E0,2.559469E4,-7.5319125E4,2.55E2,-6.8756626E3,1.98E2,5.1006004E4,3.874401E1,4.6701753E3,1.3218036E5,2.3337361E4,-3.1384473E3,1.095815E4,1.3787869E4,1.0878841E5,2.1714404E4,6.0823684E4,3.8862556E3,-2.1231043E4,-1.4185903E4,-8.362207E4,6.1977195E4,1.4275114E5,5.1670434E4,-4.9431098E4,1.851249E4,-4.5345434E4,-1.5423375E3,8.832748E4,1.05072016E5,2.1637972E5,2.0913375E4,-1.02413664E5,1.3295694E5,9.217763E3],"split_indices":[2,2,3,3,5,0,4,5,4,3,3,0,0,4,3,0,3,4,3,0,1,3,5,3,4,3,3,4,4,0,0,4,5,3,4,0,0,0,0,0,0,3,0,0,0,0,0,0,0,0,0,0,0,0,0,0,0,0,0,0,0,0,0,0,0,0,0,0,0],"split_type":[0,0,0,0,0,0,0,0,0,0,0,0,0,0,0,0,0,0,0,0,0,0,0,0,0,0,0,0,0,0,0,0,0,0,0,0,0,0,0,0,0,0,0,0,0,0,0,0,0,0,0,0,0,0,0,0,0,0,0,0,0,0,0,0,0,0,0,0,0],"sum_hessian":[7.38E2,7.18E2,2E1,5.35E2,1.83E2,2E0,1.8E1,4.51E2,8.4E1,1.66E2,1.7E1,1E0,1.7E1,3.82E2,6.9E1,7.9E1,5E0,4.7E1,1.19E2,2E0,1.5E1,4E0,1.3E1,1.86E2,1.96E2,1.6E1,5.3E1,7E1,9E0,4E0,1E0,3.9E1,8E0,6.1E1,5.8E1,1E0,1E0,1.4E1,1E0,2E0,2E0,1.2E1,1E0,1E0,1.85E2,4.7E1,1.49E2,6E0,1E1,3.9E1,1.4E1,6.2E1,8E0,3E0,6E0,1.9E1,2E1,5E0,3E0,5.4E1,7E0,1.5E1,4.3E1,1E1,4E0,1E0,1E0,1.1E1,1E0],"tree_param":{"num_deleted":"0","num_feature":"10","num_nodes":"69","size_leaf_vector":"0"}},{"base_weights":[2.3973924E4,2.0141943E4,1.855332E5,1.4556381E4,7.4612586E4,4.441024E5,1.21447805E5,1.1997351E4,6.7638875E4,3.496809E5,4.6788992E4,1.316185E5,5.345151E5,6.3521625E4,1.5300286E5,1.1273624E5,1.1007831E4,1.9760744E5,4.587765E4,6.891078E4,6.0746744E5,-1.1874449E4,1.021583E5,-2.228125E3,1.1340097E5,2.0006617E5,4.4147188E4,4.0565883E4,1.7137131E5,1.0175626E4,9.4883586E4,2.5826242E5,7.80125E3,1.4476995E5,2.2382902E4,6.600506E4,-3.7341184E4,1.8179897E5,5.1782758E4,-2.555925E4,1.4055333E4,5.4485E3,5.521725E4,4.8938324E4,7.7042812E3,1.0854132E4,-7.5172016E4,1.12551984E5,3.2508125E3,-6.6983664E4,4.4724477E4,-7.23955E4,1.24211164E5,-4.303482E3,-7.599088E4,3.1542144E5,4.128843E4,9.571488E4,-1.7423951E4],"categories":[],"categories_nodes":[],"categories_segments":[],"categories_sizes":[],"default_left":[true,true,true,true,true,true,true,true,true,true,true,false,false,true,true,true,true,true,true,false,false,true,true,true,false,false,true,true,false,true,true,false,false,false,true,true,true,true,true,false,false,false,false,false,false,false,false,false,false,false,false,false,false,false,false,false,false,false,false],"id":4,"left_children":[1,3,5,7,9,11,13,15,17,19,21,-1,-1,23,25,27,29,31,33,-1,-1,35,37,39,-1,-1,41,43,-1,45,47,-1,-1,-1,49,51,53,55,57,-1,-1,-1,-1,-1,-1,-1,-1,-1,-1,-1,-1,-1,-1,-1,-1,-1,-1,-1,-1],"loss_changes":[4.5376373E11,2.1888247E11,2.2774081E11,8.843202E10,4.963999E11,1.4378795E10,1.7690313E10,6.1355065E10,7.577276E10,3.923844E11,2.0260225E11,0E0,0E0,2.3214E10,3.7265834E10,1.8429977E10,4.2516808E10,4.402535E10,5.948608E10,0E0,0E0,6.3947006E10,1.1895875E11,1.8793495E9,0E0,0E0,1.4103096E9,7.2122675E8,0E0,3.6601033E10,9.343504E9,0E0,0E0,0E0,4.891649E10,7.344046E10,3.0315295E10,2.1226688E11,6.5519206E10,0E0,0E0,0E0,0E0,0E0,0E0,0E0,0E0,0E0,0E0,0E0,0E0,0E0,0E0,0E0,0E0,0E0,0E0,0E0,0E0],"parents":[2147483647,0,0,1,1,2,2,3,3,4,4,5,5,6,6,7,7,8,8,9,9,10,10,13,13,14,14,15,15,16,16,17,17,18,18,21,21,22,22,23,23,26,26,27,27,29,29,30,30,34,34,35,35,36,36,37,37,38,38],"right_children":[2,4,6,8,10,12,14,16,18,20,22,-1,-1,24,26,28,30,32,34,-1,-1,36,38,40,-1,-1,42,44,-1,46,48,-1,-1,-1,50,52,54,56,58,-1,-1,-1,-1,-1,-1,-1,-1,-1,-1,-1,-1,-1,-1,-1,-1,-1,-1,-1,-1],"split_conditions":[3.59E2,3.5E0,-9.159685E0,2.125E2,3.8715576E1,4.81E2,4.5E0,3.8706367E1,3.8714325E1,4.5E0,3.873295E1,7.89711E4,3.207091E5,-9.149794E0,4.93E2,1.035E2,5E-1,2.75E2,2.24E2,4.134647E4,3.6448047E5,1.5E0,3.8741108E1,3.765E2,6.8040586E4,1.2003971E5,5.095E2,9.35E1,1.0282279E5,3.8766403E1,2.5E0,1.5495745E5,4.68075E3,8.686198E4,2.345E2,3.5E0,1.97E2,-9.146572E0,2.745E2,-1.5335551E4,8.4332E3,3.2691E3,3.313035E4,2.9362996E4,4.622569E3,6.5124795E3,-4.510321E4,6.7531195E4,1.9504875E3,-4.01902E4,2.6834688E4,-4.34373E4,7.45267E4,-2.5820894E3,-4.559453E4,1.8925288E5,2.4773059E4,5.7428934E4,-1.0454371E4],"split_indices":[0,2,4,0,3,0,5,3,3,5,3,0,0,4,0,0,8,0,0,0,0,5,3,0,0,0,0,0,0,3,2,0,0,0,0,1,0,4,0,0,0,0,0,0,0,0,0,0,0,0,0,0,0,0,0,0,0,0,0],"split_type":[0,0,0,0,0,0,0,0,0,0,0,0,0,0,0,0,0,0,0,0,0,0,0,0,0,0,0,0,0,0,0,0,0,0,0,0,0,0,0,0,0,0,0,0,0,0,0,0,0,0,0,0,0,0,0,0,0,0,0],"sum_hessian":[7.38E2,7.22E2,1.6E1,6.56E2,6.6E1,2E0,1.4E1,6.27E2,2.9E1,5E0,6.1E1,1E0,1E0,6E0,8E0,5E0,6.22E2,3E0,2.6E1,3E0,2E0,3E1,3.1E1,3E0,3E0,5E0,3E0,3E0,2E0,6.17E2,5E0,2E0,1E0,4E0,2.2E1,7E0,2.3E1,1.1E1,2E1,1E0,2E0,1E0,2E0,2E0,1E0,6.13E2,4E0,4E0,1E0,4E0,1.8E1,2E0,5E0,1.3E1,1E1,5E0,6E0,1.2E1,8E0],"tree_param":{"num_deleted":"0","num_feature":"10","num_nodes":"59","size_leaf_vector":"0"}},{"base_weights":[1.1846942E4,8.887402E3,1.1260994E5,3.9529155E3,2.3213258E4,3.741605E5,8.082238E4,-1.265961E4,7.4690884E3,9.1518695E4,1.4792881E4,2.655465E5,4.5542676E4,-3.5573527E4,-7.13818E3,4.36819E4,4.44776E3,1.8033856E5,2.4498381E3,1.1581284E4,1.4115433E5,3.6202875E5,3.6271E4,2.1974654E4,8.900962E4,-5.4242355E4,-2.4217645E4,-2.9688872E3,-3.4771555E4,2.8343034E5,1.133623E4,-1.11545875E5,5.5769165E3,2.2847534E5,-8.1257085E3,-6.230739E4,3.4527223E4,-1.976096E4,2.2019734E4,2.63335E4,1.7063677E5,8.306021E4,-2.6581344E4,1.7578979E4,1.2032019E5,-6.3404113E4,-4.1967812E3,-8.696597E3,-3.2826227E4,1.4788981E4,-7.8473896E3,-1.2407097E4,-4.7606676E4,-3.7224805E4,3.990804E4,8.728753E4,-2.0693286E5,-1.1062838E4,1.147365E4,3.2488572E5,5.0833562E4,-3.5160875E4,2.2952312E4,-1.0031E4,-7.637585E4,5.549971E4,1.0835787E4,1.09580086E5,-2.9204607E4,8.249479E3,5.7416586E4,1.22309164E5,3.2848438E4,-5.2578E4,1.25498125E4,2.5689969E4,6.585E2],"categories":[],"categories_nodes":[],"categories_segments":[],"categories_sizes":[],"default_left":[true,true,true,true,true,false,true,true,true,true,true,true,true,true,true,true,true,true,true,true,true,false,false,true,true,true,true,true,true,false,true,true,true,true,true,true,true,true,true,false,false,true,true,true,false,false,false,false,false,false,false,false,false,false,false,false,false,false,false,false,false,false,false,false,false,false,false,false,false,false,false,false,false,false,false,false,false],"id":5,"left_children":[1,3,5,7,9,-1,11,13,15,17,19,21,23,25,27,29,31,33,35,37,39,-1,-1,41,43,45,47,49,51,-1,53,55,57,59,61,63,65,67,69,-1,-1,71,73,75,-1,-1,-1,-1,-1,-1,-1,-1,-1,-1,-1,-1,-1,-1,-1,-1,-1,-1,-1,-1,-1,-1,-1,-1,-1,-1,-1,-1,-1,-1,-1,-1,-1],"loss_changes":[2.1937314E11,5.073379E10,1.4433637E11,3.1403457E10,1.0447088E11,0E0,1.1823411E11,1.1637017E10,4.827277E10,1.5777261E11,6.5319772E10,5.321597E10,1.6479338E10,2.4992563E9,8.766553E9,2.6043916E11,5.431759E10,9.258595E10,2.4999858E10,5.343586E10,9.039454E9,0E0,0E0,4.076902E10,1.1298583E10,2.4822354E9,1.4498463E9,6.00674E9,2.2774446E9,0E0,4.4497453E10,9.3931905E10,4.006187E10,1.2048197E11,3.32811E9,2.1722132E9,3.3709097E9,5.3276516E10,5.89894E10,0E0,0E0,7.8006886E9,8.799679E9,3.9375462E8,0E0,0E0,0E0,0E0,0E0,0E0,0E0,0E0,0E0,0E0,0E0,0E0,0E0,0E0,0E0,0E0,0E0,0E0,0E0,0E0,0E0,0E0,0E0,0E0,0E0,0E0,0E0,0E0,0E0,0E0,0E0,0E0,0E0],"parents":[2147483647,0,0,1,1,2,2,3,3,4,4,6,6,7,7,8,8,9,9,10,10,11,11,12,12,13,13,14,14,15,15,16,16,17,17,18,18,19,19,20,20,23,23,24,24,25,25,26,26,27,27,28,28,30,30,31,31,32,32,33,33,34,34,35,35,36,36,37,37,38,38,41,41,42,42,43,43],"right_children":[2,4,6,8,10,-1,12,14,16,18,20,22,24,26,28,30,32,34,36,38,40,-1,-1,42,44,46,48,50,52,-1,54,56,58,60,62,64,66,68,70,-1,-1,72,74,76,-1,-1,-1,-1,-1,-1,-1,-1,-1,-1,-1,-1,-1,-1,-1,-1,-1,-1,-1,-1,-1,-1,-1,-1,-1,-1,-1,-1,-1,-1,-1,-1,-1],"split_conditions":[4.5E0,2.5E0,-9.159685E0,5.45E1,2.5E0,2.2449631E5,3.8710022E1,3.871138E1,3.8710083E1,-9.148237E0,1.05E1,3.295E2,-9.14522E0,3.870883E1,1.5E0,-9.156764E0,3.8710274E1,3.8734283E1,3.8718437E1,-9.151783E0,1.615E2,2.1721727E5,2.1762602E4,-9.152773E0,3.8718704E1,-9.143564E0,3.871031E1,-9.147605E0,3.8718422E1,1.7005822E5,2.5E0,1.115E2,-9.148886E0,3.5E0,1.405E2,1.04E2,1.235E2,3.8712273E1,2.165E2,1.5800101E4,1.0238206E5,3.8732338E1,-9.148608E0,2.455E2,7.219212E4,-3.804247E4,-2.5180688E3,-5.217958E3,-1.9695736E4,8.87339E3,-4.708434E3,-7.4442583E3,-2.8564006E4,-2.2334883E4,2.3944824E4,5.237252E4,-1.2415972E5,-6.637703E3,6.8841904E3,1.9493144E5,3.0500139E4,-2.1096525E4,1.3771388E4,-6.0186E3,-4.582551E4,3.329983E4,6.5014727E3,6.5748055E4,-1.7522766E4,4.9496875E3,3.4449953E4,7.33855E4,1.9709062E4,-3.15468E4,7.5298877E3,1.5413981E4,3.951E2],"split_indices":[2,2,4,0,1,0,3,3,3,4,5,0,4,3,1,4,3,3,3,4,0,0,0,4,3,4,3,4,3,0,5,0,4,5,0,0,0,3,0,0,0,3,4,0,0,0,0,0,0,0,0,0,0,0,0,0,0,0,0,0,0,0,0,0,0,0,0,0,0,0,0,0,0,0,0,0,0],"split_type":[0,0,0,0,0,0,0,0,0,0,0,0,0,0,0,0,0,0,0,0,0,0,0,0,0,0,0,0,0,0,0,0,0,0,0,0,0,0,0,0,0,0,0,0,0,0,0,0,0,0,0,0,0,0,0,0,0,0,0,0,0,0,0,0,0,0,0,0,0,0,0,0,0,0,0,0,0],"sum_hessian":[7.38E2,7.18E2,2E1,5.35E2,1.83E2,1E0,1.9E1,9.3E1,4.42E2,1.9E1,1.64E2,2E0,1.7E1,1.7E1,7.6E1,3.3E1,4.09E2,9E0,1E1,1.61E2,3E0,1E0,1E0,1.2E1,5E0,5E0,1.2E1,6.7E1,9E0,3E0,3E1,3E0,4.06E2,7E0,2E0,3E0,7E0,4E1,1.21E2,1E0,2E0,5E0,7E0,2E0,3E0,4E0,1E0,5E0,7E0,1.4E1,5.3E1,4E0,5E0,1.1E1,1.9E1,1E0,2E0,1.06E2,3E2,4E0,3E0,1E0,1E0,1E0,2E0,3E0,4E0,2E0,3.8E1,8.8E1,3.3E1,2E0,3E0,4E0,3E0,1E0,1E0],"tree_param":{"num_deleted":"0","num_feature":"10","num_nodes":"77","size_leaf_vector":"0"}},{"base_weights":[6.1398945E3,4.309963E3,8.36023E4,5.6920902E4,3.2664375E3,2.4188438E5,4.6369727E4,2.2308646E4,2.5342012E5,2.4278584E3,5.6329973E4,7.107625E4,3.092042E4,-1.9892207E4,4.327927E4,5.637208E3,-1.377781E4,1.008286E5,2.4363438E3,8.9845336E4,2.860175E4,4.3176707E4,1.35040625E4,2.0420984E4,-3.508575E4,7.8923445E4,-2.0996812E4,6.739604E3,-5.842052E4,-1.541104E4,8.700181E4,5.1560047E4,1.3289714E5,1.5185638E4,-3.0635062E4,-2.118125E3,1.7060125E4,-7.507125E3,-4.1762918E4,1.1025561E5,1.0826083E4,3.944275E4,-5.430425E4,5.5692646E3,6.634256E4,-1.2086731E5,3.3485625E3,1.734742E4,-2.0123969E4,1.4234688E3,1.8260312E4,2.1290656E4,4.9E1],"categories":[],"categories_nodes":[],"categories_segments":[],"categories_sizes":[],"default_left":[true,true,true,true,true,false,true,true,false,true,true,true,true,true,true,true,true,true,true,false,false,false,true,false,true,true,true,true,true,true,false,false,false,true,false,false,true,false,false,false,false,false,false,false,false,false,false,false,false,false,false,false,false],"id":6,"left_children":[1,3,5,7,9,-1,11,13,-1,15,17,19,21,23,25,27,29,31,33,-1,-1,-1,35,-1,37,39,41,43,45,47,-1,-1,-1,49,-1,-1,51,-1,-1,-1,-1,-1,-1,-1,-1,-1,-1,-1,-1,-1,-1,-1,-1],"loss_changes":[1.0439008E11,3.9504986E10,8.8957575E10,8.955346E10,3.1454446E10,0E0,3.5236925E9,1.2366574E10,0E0,3.6484104E10,2.6130334E10,1.4115656E9,1.762731E9,3.779573E9,2.227907E10,4.1702597E10,2.0431096E10,2.6202644E9,2.9944174E9,0E0,0E0,0E0,3.70054E8,0E0,4.21098E8,1.1603345E10,1.0194852E10,3.9806927E10,3.8982246E10,1.8103865E10,0E0,0E0,0E0,1.8479053E8,0E0,0E0,3.579337E8,0E0,0E0,0E0,0E0,0E0,0E0,0E0,0E0,0E0,0E0,0E0,0E0,0E0,0E0,0E0,0E0],"parents":[2147483647,0,0,1,1,2,2,3,3,4,4,6,6,7,7,9,9,10,10,11,11,12,12,13,13,14,14,15,15,16,16,17,17,18,18,22,22,24,24,25,25,26,26,27,27,28,28,29,29,33,33,36,36],"right_children":[2,4,6,8,10,-1,12,14,-1,16,18,20,22,24,26,28,30,32,34,-1,-1,-1,36,-1,38,40,42,44,46,48,-1,-1,-1,50,-1,-1,52,-1,-1,-1,-1,-1,-1,-1,-1,-1,-1,-1,-1,-1,-1,-1,-1],"split_conditions":[3.59E2,3.870706E1,-9.159685E0,1.955E2,-9.104072E0,1.4513062E5,3.8724216E1,7.5E1,1.5205208E5,-9.130348E0,-9.0988865E0,3.96E2,4.5E0,3.8706524E1,1.29E2,3.11E2,3.21E2,3.875168E1,1.965E2,5.3907203E4,1.716105E4,2.5906025E4,4.27E2,1.2252591E4,5.2E1,-9.146006E0,3.8706165E1,2.815E2,3.465E2,3.871793E1,5.220109E4,3.093603E4,7.973829E4,8.15E1,-1.838104E4,-1.270875E3,8.5E0,-4.5042754E3,-2.5057752E4,6.615337E4,6.49565E3,2.366565E4,-3.258255E4,3.3415588E3,3.980554E4,-7.252039E4,2.0091376E3,1.0408452E4,-1.2074382E4,8.540813E2,1.09561875E4,1.2774395E4,2.9400002E1],"split_indices":[0,3,4,0,4,0,3,0,0,4,4,0,2,3,0,0,0,3,0,0,0,0,0,0,0,4,3,0,0,3,0,0,0,0,0,0,5,0,0,0,0,0,0,0,0,0,0,0,0,0,0,0,0],"split_type":[0,0,0,0,0,0,0,0,0,0,0,0,0,0,0,0,0,0,0,0,0,0,0,0,0,0,0,0,0,0,0,0,0,0,0,0,0,0,0,0,0,0,0,0,0,0,0,0,0,0,0,0,0],"sum_hessian":[7.38E2,7.22E2,1.6E1,1.3E1,7.09E2,2E0,1.4E1,1.2E1,1E0,6.99E2,1E1,4E0,1E1,4E0,8E0,5.84E2,1.15E2,5E0,5E0,2E0,2E0,5E0,5E0,1E0,3E0,5E0,3E0,5.75E2,9E0,1.14E2,1E0,3E0,2E0,4E0,1E0,1E0,4E0,1E0,2E0,3E0,2E0,1E0,2E0,5.65E2,1E1,4E0,5E0,1.4E1,1E2,1E0,3E0,3E0,1E0],"tree_param":{"num_deleted":"0","num_feature":"10","num_nodes":"53","size_leaf_vector":"0"}},{"base_weights":[3.2403657E3,2.3883684E3,8.078806E4,-3.6004176E4,3.4067297E3,1.89347E5,3.8224355E4,-4.7296445E4,3.9973418E4,-1.2749176E3,1.1488483E4,5.8249438E4,8.6331875E3,-2.692401E4,-9.0797484E4,-2.000757E4,5.8773047E2,5.3989414E4,4.9136543E3,1.63121875E4,6.677779E4,1.1683334E3,1.5493875E4,1.8643688E4,-3.2278291E4,-3.025999E4,7.2874478E3,1.38883E3,-3.552261E4,1.3583543E4,9.139365E4,5.098369E4,4.813368E2,3.425E1,1.69825E3,-1.2825148E4,-5.6939664E4,-4.652403E4,-5.4097803E3,3.3363406E4,1.8802329E3,-2.3167546E3,1.5161368E4,-5.219612E4,1.5209792E4,-8.993936E3,1.2948225E5,3.4490957E4,1.334627E5,2.7200213E4,1.3930755E5,-2.692316E3,5.280983E4],"categories":[],"categories_nodes":[],"categories_segments":[],"categories_sizes":[],"default_left":[true,true,true,true,true,false,true,true,false,true,true,true,true,true,false,true,true,true,true,false,false,true,false,false,true,true,true,true,true,true,true,true,true,false,false,false,false,false,false,false,false,false,false,false,false,false,false,false,false,false,false,false,false],"id":7,"left_children":[1,3,5,7,9,-1,11,13,-1,15,17,19,21,23,-1,25,27,29,31,-1,-1,33,-1,-1,35,37,39,41,43,45,47,49,51,-1,-1,-1,-1,-1,-1,-1,-1,-1,-1,-1,-1,-1,-1,-1,-1,-1,-1,-1,-1],"loss_changes":[4.862976E10,2.8740706E10,2.9718598E10,1.8192126E10,2.7029903E10,0E0,3.6424049E9,1.2616434E10,0E0,1.5818765E10,7.294469E10,3.3800806E8,1.8608762E8,3.7741015E9,0E0,1.1694878E10,1.1995223E10,5.1651625E10,4.6530327E10,0E0,0E0,1.6754438E6,0E0,0E0,5.0238444E9,1.1871183E10,1.627839E9,2.0704938E10,8.408359E9,4.8269984E10,3.8479184E10,3.8217114E10,3.485333E10,0E0,0E0,0E0,0E0,0E0,0E0,0E0,0E0,0E0,0E0,0E0,0E0,0E0,0E0,0E0,0E0,0E0,0E0,0E0,0E0],"parents":[2147483647,0,0,1,1,2,2,3,3,4,4,6,6,7,7,9,9,10,10,11,11,12,12,13,13,15,15,16,16,17,17,18,18,21,21,24,24,25,25,26,26,27,27,28,28,29,29,30,30,31,31,32,32],"right_children":[2,4,6,8,10,-1,12,14,-1,16,18,20,22,24,-1,26,28,30,32,-1,-1,34,-1,-1,36,38,40,42,44,46,48,50,52,-1,-1,-1,-1,-1,-1,-1,-1,-1,-1,-1,-1,-1,-1,-1,-1,-1,-1,-1,-1],"split_conditions":[5.5E0,-9.1691E0,-9.159685E0,3.875415E1,3.5E0,1.136082E5,4.35E2,-9.171185E0,2.398405E4,5E-1,3.871844E1,2.045E2,5.64E2,7.5E1,-5.4478492E4,-9.132826E0,3.8764427E1,3.8710293E1,-9.160852E0,9.7873125E3,4.0066676E4,5.095E2,9.296325E3,1.1186213E4,-9.1742325E0,3.872708E1,5E-1,3.8736317E1,2.92E2,2.235E2,-9.145863E0,-9.161617E0,4.5E0,2.0550001E1,1.01895E3,-7.6950894E3,-3.41638E4,-2.791442E4,-3.2458684E3,2.0018045E4,1.1281398E3,-1.3900529E3,9.096821E3,-3.1317674E4,9.125876E3,-5.3963613E3,7.768935E4,2.0694574E4,8.0077625E4,1.6320128E4,8.358453E4,-1.6153896E3,3.1685898E4],"split_indices":[2,4,4,3,5,0,0,4,0,5,3,0,0,0,0,4,3,3,4,0,0,0,0,0,4,3,1,3,0,0,4,4,1,0,0,0,0,0,0,0,0,0,0,0,0,0,0,0,0,0,0,0,0],"split_type":[0,0,0,0,0,0,0,0,0,0,0,0,0,0,0,0,0,0,0,0,0,0,0,0,0,0,0,0,0,0,0,0,0,0,0,0,0,0,0,0,0,0,0,0,0,0,0,0,0,0,0,0,0],"sum_hessian":[7.38E2,7.31E2,7E0,1.8E1,7.13E2,1E0,6E0,1.6E1,2E0,4.52E2,2.61E2,3E0,3E0,1.2E1,4E0,4E1,4.12E2,3.4E1,2.27E2,1E0,2E0,2E0,1E0,1E0,1.1E1,2.9E1,1.1E1,4.04E2,8E0,1.7E1,1.7E1,1.9E1,2.08E2,1E0,1E0,7E0,4E0,1.7E1,1.2E1,1E0,1E1,3.19E2,8.5E1,6E0,2E0,1.5E1,2E0,8E0,9E0,1.6E1,3E0,1.97E2,1.1E1],"tree_param":{"num_deleted":"0","num_feature":"10","num_nodes":"53","size_leaf_vector":"0"}},{"base_weights":[1.8257303E3,1.3429932E3,7.241495E4,3.653642E3,-8.860627E3,1.32543E5,2.4237188E4,1.7604055E3,3.956512E4,-1.2649226E4,5.3333105E4,-5.7767914E4,2.4948796E3,2.0067906E5,2.7088123E4,-2.167003E4,1.1244634E3,1.2780013E4,9.0681195E4,-1.9859398E4,-8.122445E4,1.7611648E4,3.2149496E2,3.862303E4,4.698E3,-3.5818055E4,1.5969402E4,8.890409E4,-6.0633525E3,5.0508E4,-2.9194646E4,1.3050578E4,-3.5192918E4,1.7082764E3,8.223621E4,-5.7553664E4,2.1257483E3,-1.0647422E4,3.4224344E4,-2.0838443E4,-6.467841E4,2.912091E4,-2.3948104E4,1.5636125E4,1.08101375E5,-2.8154266E4,4.509528E3,-7.6974062E3,-3.6074562E4],"categories":[],"categories_nodes":[],"categories_segments":[],"categories_sizes":[],"default_left":[true,true,true,true,true,false,false,true,true,true,true,true,true,false,true,true,true,true,false,true,false,true,true,false,true,true,true,true,true,false,true,false,false,false,false,false,false,false,false,false,false,false,false,false,false,false,false,false,false],"id":8,"left_children":[1,3,5,7,9,-1,-1,11,13,15,17,19,21,-1,23,25,27,29,-1,31,-1,33,35,-1,37,39,41,43,45,-1,47,-1,-1,-1,-1,-1,-1,-1,-1,-1,-1,-1,-1,-1,-1,-1,-1,-1,-1],"loss_changes":[2.5081991E10,1.7361248E10,1.1265436E10,4.072205E10,3.2718279E10,0E0,0E0,2.5107177E10,5.486143E10,1.6053406E10,1.0953601E10,4.6073057E9,1.8556443E10,0E0,7.306588E9,4.210963E10,3.335145E10,9.393512E9,0E0,2.4786765E9,0E0,7.28263E10,5.1808743E10,0E0,5.3493806E9,2.3290847E10,1.2247056E10,3.9309455E9,1.1572572E10,0E0,1.6426624E8,0E0,0E0,0E0,0E0,0E0,0E0,0E0,0E0,0E0,0E0,0E0,0E0,0E0,0E0,0E0,0E0,0E0,0E0],"parents":[2147483647,0,0,1,1,2,2,3,3,4,4,7,7,8,8,9,9,10,10,11,11,12,12,14,14,15,15,16,16,17,17,19,19,21,21,22,22,24,24,25,25,26,26,27,27,28,28,30,30],"right_children":[2,4,6,8,10,-1,-1,12,14,16,18,20,22,-1,24,26,28,30,-1,32,-1,34,36,-1,38,40,42,44,46,-1,48,-1,-1,-1,-1,-1,-1,-1,-1,-1,-1,-1,-1,-1,-1,-1,-1,-1,-1],"split_conditions":[5.66E2,3.874125E1,6.055E2,3.874105E1,9.5E0,7.9525805E4,1.4542313E4,-9.167803E0,1.5E0,3.8751484E1,-9.151285E0,-9.170572E0,-9.156477E0,1.20407445E5,1.62E2,-9.141239E0,3.8752357E1,-9.16572E0,5.440872E4,3.8718994E1,-4.873467E4,-9.158723E0,-9.154542E0,2.317382E4,2.025E2,-9.147717E0,3.5E0,1.255E2,2.5E0,3.03048E4,1.74E2,7.830347E3,-2.1115752E4,1.0249658E3,4.934173E4,-3.45322E4,1.275449E3,-6.3884536E3,2.0534607E4,-1.2503066E4,-3.8807047E4,1.7472547E4,-1.4368862E4,9.381676E3,6.486083E4,-1.689256E4,2.7057168E3,-4.618444E3,-2.1644738E4],"split_indices":[0,3,0,3,5,0,0,4,5,3,4,4,4,0,0,4,3,4,0,3,0,4,4,0,0,4,1,0,5,0,0,0,0,0,0,0,0,0,0,0,0,0,0,0,0,0,0,0,0],"split_type":[0,0,0,0,0,0,0,0,0,0,0,0,0,0,0,0,0,0,0,0,0,0,0,0,0,0,0,0,0,0,0,0,0,0,0,0,0,0,0,0,0,0,0,0,0,0,0,0,0],"sum_hessian":[7.38E2,7.34E2,4E0,5.99E2,1.35E2,1E0,3E0,5.7E2,2.9E1,1.28E2,7E0,6E0,5.64E2,1E0,2.8E1,7.7E1,5.1E1,4E0,3E0,3E0,3E0,7E1,4.94E2,1.8E1,1E1,5.6E1,2.1E1,3E0,4.8E1,2E0,2E0,1E0,2E0,5.7E1,1.3E1,1.4E1,4.8E2,7E0,3E0,3.8E1,1.8E1,1.6E1,5E0,1E0,2E0,1.5E1,3.3E1,1E0,1E0],"tree_param":{"num_deleted":"0","num_feature":"10","num_nodes":"49","size_leaf_vector":"0"}},{"base_weights":[1.1055051E3,8.1871936E2,5.358772E4,1.8811069E3,-1.2906788E4,9.278E4,9.583625E3,1.1450348E3,1.26717125E5,-2.0122456E5,-5.41482E3,7.2460614E2,9.590704E4,-2.069375E2,1.6910745E5,-1.840544E4,3.115725E4,5.0354824E3,-4.5152686E3,5.9288125E3,1.3791175E5,-3.3701656E4,8.312616E3,5.897307E4,2.91875E3,1.0860603E3,3.1127049E4,-9.6564453E2,-6.1450582E4,3.7098875E4,-4.1472957E4,6.09585E4,1.9516072E2,7.0747E3,1.25799336E5,-4.0159167E3,1.58285E4],"categories":[],"categories_nodes":[],"categories_segments":[],"categories_sizes":[],"default_left":[true,true,true,true,true,false,false,true,true,false,true,true,true,false,false,true,true,true,true,false,false,true,true,true,true,false,false,false,false,false,false,false,false,false,false,false,false],"id":9,"left_children":[1,3,5,7,9,-1,-1,11,13,-1,15,17,19,-1,-1,21,23,25,27,-1,-1,29,31,33,35,-1,-1,-1,-1,-1,-1,-1,-1,-1,-1,-1,-1],"loss_changes":[1.1076753E10,1.075605E10,6.0052193E9,6.2701404E10,7.367829E10,0E0,0E0,2.705813E10,2.1563163E10,0E0,2.5277833E10,1.5360315E10,1.051512E10,0E0,0E0,1.6219887E10,1.0822076E10,3.840129E10,6.1982544E10,0E0,0E0,1.5294085E10,6.395917E9,2.3381912E10,7.802369E8,0E0,0E0,0E0,0E0,0E0,0E0,0E0,0E0,0E0,0E0,0E0,0E0],"parents":[2147483647,0,0,1,1,2,2,3,3,4,4,7,7,8,8,10,10,11,11,12,12,15,15,16,16,17,17,18,18,21,21,22,22,23,23,24,24],"right_children":[2,4,6,8,10,-1,-1,12,14,-1,16,18,20,-1,-1,22,24,26,28,-1,-1,30,32,34,36,-1,-1,-1,-1,-1,-1,-1,-1,-1,-1,-1,-1],"split_conditions":[6.5E0,2.52E2,-9.159685E0,2.495E2,2.545E2,5.5668004E4,5.7501753E3,4.5E0,2.5E0,-1.2073474E5,5.5E0,-9.142372E0,2.295E2,-1.24162506E2,1.0146448E5,3.315E2,-9.149478E0,1.835E2,1.94E2,3.5572876E3,8.2747055E4,-9.153862E0,3.39E2,-9.1539955E0,3.8745346E1,6.516362E2,1.867623E4,-5.793867E2,-3.687035E4,2.2259326E4,-2.4883775E4,3.65751E4,1.17096436E2,4.2448203E3,7.54796E4,-2.40955E3,9.497101E3],"split_indices":[2,0,4,0,0,0,0,2,2,0,5,4,0,0,0,0,4,0,0,0,0,4,0,4,3,0,0,0,0,0,0,0,0,0,0,0,0],"split_type":[0,0,0,0,0,0,0,0,0,0,0,0,0,0,0,0,0,0,0,0,0,0,0,0,0,0,0,0,0,0,0,0,0,0,0,0,0],"sum_hessian":[7.38E2,7.35E2,3E0,6.83E2,5.2E1,1E0,2E0,6.8E2,3E0,1E0,5.1E1,6.78E2,2E0,1E0,2E0,3.8E1,1.3E1,3.72E2,3.06E2,1E0,1E0,2.4E1,1.4E1,6E0,7E0,3.24E2,4.8E1,2.89E2,1.7E1,2E0,2.2E1,1E0,1.3E1,4E0,2E0,5E0,2E0],"tree_param":{"num_deleted":"0","num_feature":"10","num_nodes":"37","size_leaf_vector":"0"}},{"base_weights":[7.550975E2,-6.189238E3,3.6162832E3,-4.226937E3,-1.0912444E5,3.0157693E4,6.906814E2,-2.664161E3,-6.8697586E4,-1.28707586E5,-2.51675E4,9.6090914E4,1.0123636E4,-1.0286534E5,1.3488925E3,-6.854835E3,1.4673598E4,-2.4419229E4,-9.0063414E4,3.311325E4,1.77629E5,-3.4311293E4,1.3283152E4,-1.3420828E4,-1.4085719E5,7.258695E4,1.0427966E3,-4.7919893E3,-1.1938831E5,5.9485723E4,-1.6995303E3,1.0255643E4,9.653825E4,2.235914E5,-3.0903125E3,-5.2077938E4,5.91E2,1.6679852E4,-2.0597938E4,-1.6122337E1,1.98938E4,-6.8196064E3,1.0831096E5,-1.6023875E4,6.864307E4,1.073027E4,-4.5854598E4,7.566159E4,-1.3248948E4,1.0583659E4,3.668857E4,-2.7849166E4,5.57875E2,1.9160001E3,-2.786616E4,7.688317E4,5.375673E3],"categories":[],"categories_nodes":[],"categories_segments":[],"categories_sizes":[],"default_left":[true,true,true,true,true,true,true,true,true,false,false,true,true,true,true,true,true,false,false,true,true,true,true,false,false,false,true,true,false,true,true,true,false,false,false,false,false,true,true,true,true,false,false,false,false,false,false,false,false,false,false,false,false,false,false,false,false],"id":10,"left_children":[1,3,5,7,9,11,13,15,17,-1,-1,19,21,23,25,27,29,-1,-1,31,33,35,37,-1,-1,-1,39,41,-1,43,45,47,-1,-1,-1,-1,-1,49,51,53,55,-1,-1,-1,-1,-1,-1,-1,-1,-1,-1,-1,-1,-1,-1,-1,-1],"loss_changes":[1.4705494E10,4.3164004E10,4.0666325E10,2.1274552E10,3.331162E9,6.7710276E10,3.2375185E10,1.5285562E10,2.5263616E9,0E0,0E0,5.5730635E10,6.2110295E9,8.297898E9,1.0191831E10,3.8654456E10,3.018571E10,0E0,0E0,1.0603617E10,4.2231267E10,1.8931274E9,4.8316856E9,0E0,0E0,0E0,9.383108E9,3.9032603E10,0E0,8.708174E9,1.7507437E10,1.1766313E10,0E0,0E0,0E0,0E0,0E0,4.000982E9,6.302504E8,2.4053547E10,2.0267889E10,0E0,0E0,0E0,0E0,0E0,0E0,0E0,0E0,0E0,0E0,0E0,0E0,0E0,0E0,0E0,0E0],"parents":[2147483647,0,0,1,1,2,2,3,3,4,4,5,5,6,6,7,7,8,8,11,11,12,12,13,13,14,14,15,15,16,16,19,19,20,20,21,21,22,22,26,26,27,27,29,29,30,30,31,31,37,37,38,38,39,39,40,40],"right_children":[2,4,6,8,10,12,14,16,18,-1,-1,20,22,24,26,28,30,-1,-1,32,34,36,38,-1,-1,-1,40,42,-1,44,46,48,-1,-1,-1,-1,-1,50,52,54,56,-1,-1,-1,-1,-1,-1,-1,-1,-1,-1,-1,-1,-1,-1,-1,-1],"split_conditions":[-9.149025E0,-9.149193E0,-9.148046E0,6.5E0,2.09E2,3.873828E1,-9.14776E0,1.99E2,-9.152229E0,-7.7224555E4,-1.5100501E4,3.8720837E1,3.8740547E1,1.65E2,5E-1,1.96E2,2.32E2,-1.4651538E4,-5.403805E4,3.5E0,2.3E2,3.88E2,3.5E0,-8.052497E3,-8.451431E4,4.355217E4,2.375E2,1.935E2,-7.163299E4,3.870981E1,3.8745293E1,1.5E0,5.7922953E4,1.3415484E5,-1.8541876E3,-3.1246764E4,3.546E2,1.725E2,2.74E2,1.915E2,2.55E2,-4.091764E3,6.498658E4,-9.614325E3,4.1185844E4,6.438162E3,-2.751276E4,4.5396957E4,-7.949369E3,6.350196E3,2.2013143E4,-1.67095E4,3.34725E2,1.1496001E3,-1.6719697E4,4.6129906E4,3.2254038E3],"split_indices":[4,4,4,1,0,3,4,0,4,0,0,3,3,0,2,0,0,0,0,1,0,0,2,0,0,0,0,0,0,3,3,1,0,0,0,0,0,0,0,0,0,0,0,0,0,0,0,0,0,0,0,0,0,0,0,0,0],"split_type":[0,0,0,0,0,0,0,0,0,0,0,0,0,0,0,0,0,0,0,0,0,0,0,0,0,0,0,0,0,0,0,0,0,0,0,0,0,0,0,0,0,0,0,0,0,0,0,0,0,0,0,0,0,0,0,0,0],"sum_hessian":[7.38E2,2.15E2,5.23E2,2.12E2,3E0,5.1E1,4.72E2,2.08E2,4E0,2E0,1E0,1.1E1,4E1,2E0,4.7E2,1.68E2,4E1,2E0,2E0,7E0,4E0,2E0,3.8E1,1E0,1E0,1E0,4.69E2,1.66E2,2E0,1E1,3E1,6E0,1E0,3E0,1E0,1E0,1E0,3.5E1,3E0,4.45E2,2.4E1,1.64E2,2E0,1E0,9E0,2.4E1,6E0,1E0,5E0,2.8E1,7E0,2E0,1E0,4.17E2,2.8E1,4E0,2E1],"tree_param":{"num_deleted":"0","num_feature":"10","num_nodes":"57","size_leaf_vector":"0"}},{"base_weights":[3.4565494E2,-8.988171E2,1.0754394E4,1.1644447E3,-1.4172863E4,2.855036E4,-7.2294006E2,-4.5165063E2,1.1129777E4,-2.388195E4,6.7370366E3,-1.54070625E4,7.072588E4,-2.7122008E4,1.1720237E4,1.066115E4,-2.1903096E3,-7.154594E4,1.5280597E4,-1.3678021E4,-1.0063825E5,4.434677E4,-9.700327E3,-3.649944E4,3.8288062E4,2.6998156E4,1.2308465E5,6.757675E4,-3.7943043E4,1.9376444E3,5.704273E4,4.827413E4,-2.0847666E3,-1.669223E4,3.583843E2,1.4922025E5,9.718736E3,3.0310031E4,-1.9683703E4,3.836475E4,-1.3020621E5,7.250762E4,-8.9711875E3,-2.5585256E4,4.3421406E3,-5.403243E3,-9.733103E4,4.530867E4,5.0828125E3,-2.0363393E2,6.786175E4,2.0902479E4,1.5976903E5,-4.998792E4,2.6885791E4,-5.905261E3,2.326843E4,8.412569E4,1.9045416E3,2.4113488E4,1.5297262E5,-1.03381234E5,8.734959E3,1.213012E3,-4.866475E4,-3.4748833E3,9.393534E3,-2.703522E4,1.9358479E4,-1.9468635E4,5.4123227E4,-2.8551248E4,3.8756445E2,-1.4199572E5,-3.5609344E4,-1.9878916E4,1.1856E4,1.6755938E4,-3.2156049E4,1.40880625E4,-1.8661719E4,1.2801914E4,-7.554225E4,1.5231641E4,-1.5598E4,3.5830156E4,-4.4564375E3,-4.4374688E3,-6.3205312E4,9.968014E3,-1.56905625E4,-1.6459375E2,2.6645232E4,1.11878414E5,4.1375E2,1.20550625E4,-9.17825E3],"categories":[],"categories_nodes":[],"categories_segments":[],"categories_sizes":[],"default_left":[true,true,true,true,true,true,true,true,true,true,true,true,true,true,true,true,true,false,true,true,true,true,true,true,true,true,true,false,true,true,true,true,true,true,true,false,true,true,true,false,true,false,true,true,true,true,false,false,false,true,false,true,false,true,false,true,true,true,true,false,false,false,false,false,false,false,false,false,false,false,false,false,false,false,false,false,false,false,false,false,false,false,false,false,false,false,false,false,false,false,false,false,false,false,false,false,false],"id":11,"left_children":[1,3,5,7,9,11,13,15,17,19,21,23,25,27,29,31,33,-1,35,37,39,41,43,45,47,49,51,-1,53,55,57,59,61,63,65,-1,67,69,71,-1,73,-1,75,77,79,81,-1,-1,-1,83,-1,85,-1,87,-1,89,91,93,95,-1,-1,-1,-1,-1,-1,-1,-1,-1,-1,-1,-1,-1,-1,-1,-1,-1,-1,-1,-1,-1,-1,-1,-1,-1,-1,-1,-1,-1,-1,-1,-1,-1,-1,-1,-1,-1,-1],"loss_changes":[9.582611E9,1.812038E10,1.6157521E10,9.233577E9,1.8230004E10,5.8563633E10,1.6414418E10,9.567771E9,2.854477E10,4.639506E10,1.8359507E10,1.951835E10,3.330342E10,1.8958696E10,1.4961744E10,3.2223085E10,1.5825925E10,0E0,5.5904846E10,1.5125988E10,3.3769243E10,1.4166329E10,4.79628E9,2.216956E10,9.332946E8,1.1132156E10,2.2892626E10,0E0,1.3057724E10,4.989666E9,8.796168E9,3.930712E10,5.680281E10,3.669938E10,1.2674342E10,0E0,2.7095456E10,9.352815E9,8.733352E9,0E0,1.6280207E9,0E0,1.1447146E9,3.3215724E9,2.95305E9,1.246162E10,0E0,0E0,0E0,1.9009116E9,0E0,1.296579E9,0E0,7.5435786E9,0E0,3.573778E9,6.3847424E8,9.242161E9,4.4824778E8,0E0,0E0,0E0,0E0,0E0,0E0,0E0,0E0,0E0,0E0,0E0,0E0,0E0,0E0,0E0,0E0,0E0,0E0,0E0,0E0,0E0,0E0,0E0,0E0,0E0,0E0,0E0,0E0,0E0,0E0,0E0,0E0,0E0,0E0,0E0,0E0,0E0,0E0],"parents":[2147483647,0,0,1,1,2,2,3,3,4,4,5,5,6,6,7,7,8,8,9,9,10,10,11,11,12,12,13,13,14,14,15,15,16,16,18,18,19,19,20,20,21,21,22,22,23,23,24,24,25,25,26,26,28,28,29,29,30,30,31,31,32,32,33,33,34,34,36,36,37,37,38,38,40,40,42,42,43,43,44,44,45,45,49,49,51,51,53,53,55,55,56,56,57,57,58,58],"right_children":[2,4,6,8,10,12,14,16,18,20,22,24,26,28,30,32,34,-1,36,38,40,42,44,46,48,50,52,-1,54,56,58,60,62,64,66,-1,68,70,72,-1,74,-1,76,78,80,82,-1,-1,-1,84,-1,86,-1,88,-1,90,92,94,96,-1,-1,-1,-1,-1,-1,-1,-1,-1,-1,-1,-1,-1,-1,-1,-1,-1,-1,-1,-1,-1,-1,-1,-1,-1,-1,-1,-1,-1,-1,-1,-1,-1,-1,-1,-1,-1,-1],"split_conditions":[3.5E0,3.5E0,2.045E2,2.5E0,1.99E2,1.83E2,2.625E2,-9.156506E0,3.8713196E1,1.93E2,2.265E2,5.5E0,3.5E0,3.8707573E1,6.5E0,3.8717506E1,-9.149046E0,-4.2927562E4,3.871482E1,1.09E2,3.8717632E1,3.874681E1,2.5E0,1.605E2,3.874083E1,-9.14201E0,-9.150021E0,4.054605E4,3.875045E1,-9.130146E0,3.8741096E1,1.355E2,3.8718384E1,1.185E2,3.8733505E1,8.953216E4,3.8721546E1,-9.135578E0,3.5E0,2.3018852E4,1.975E2,4.350457E4,2.175E2,2.41E2,9.5E0,3.873107E1,-5.839862E4,2.7185205E4,3.0496875E3,3.874266E1,4.071705E4,1.92E2,9.586142E4,-9.15228E0,1.6131476E4,-9.155E0,2.86E2,-9.149115E0,2.84E2,1.4468094E4,9.178358E4,-6.2028742E4,5.2409756E3,7.278072E2,-2.9198852E4,-2.0849302E3,5.6361206E3,-1.6221133E4,1.1615088E4,-1.1681182E4,3.2473938E4,-1.713075E4,2.3253868E2,-8.519744E4,-2.1365607E4,-1.192735E4,7.1136E3,1.00535625E4,-1.929363E4,8.452838E3,-1.1197031E4,7.681149E3,-4.532535E4,9.138984E3,-9.358801E3,2.1498094E4,-2.6738625E3,-2.6624814E3,-3.7923188E4,5.9808086E3,-9.414338E3,-9.8756256E1,1.598714E4,6.7127055E4,2.4825002E2,7.2330376E3,-5.50695E3],"split_indices":[2,1,0,2,0,0,0,4,3,0,0,5,1,3,5,3,4,0,3,0,3,3,5,0,3,4,4,0,3,4,3,0,3,0,3,0,3,4,5,0,0,0,0,0,5,3,0,0,0,3,0,0,0,4,0,4,0,4,0,0,0,0,0,0,0,0,0,0,0,0,0,0,0,0,0,0,0,0,0,0,0,0,0,0,0,0,0,0,0,0,0,0,0,0,0,0,0],"split_type":[0,0,0,0,0,0,0,0,0,0,0,0,0,0,0,0,0,0,0,0,0,0,0,0,0,0,0,0,0,0,0,0,0,0,0,0,0,0,0,0,0,0,0,0,0,0,0,0,0,0,0,0,0,0,0,0,0,0,0,0,0,0,0,0,0,0,0,0,0,0,0,0,0,0,0,0,0,0,0,0,0,0,0,0,0,0,0,0,0,0,0,0,0,0,0,0,0],"sum_hessian":[7.38E2,6.6E2,7.8E1,5.72E2,8.8E1,3E1,4.8E1,4.93E2,7.9E1,6E1,2.8E1,1.5E1,1.5E1,1.5E1,3.3E1,6.6E1,4.27E2,3E0,7.6E1,5.4E1,6E0,8E0,2E1,1.1E1,4E0,9E0,6E0,1E0,1.4E1,2.8E1,5E0,1.6E1,5E1,6.3E1,3.64E2,2E0,7.4E1,6E0,4.8E1,1E0,5E0,5E0,3E0,9E0,1.1E1,8E0,3E0,3E0,1E0,6E0,3E0,2E0,4E0,1.2E1,2E0,2.1E1,7E0,3E0,2E0,1.4E1,2E0,4E0,4.6E1,4.1E1,2.2E1,2.56E2,1.08E2,1.5E1,5.9E1,2E0,4E0,3.3E1,1.5E1,4E0,1E0,2E0,1E0,1E0,8E0,8E0,3E0,7E0,1E0,3E0,3E0,1E0,1E0,3E0,9E0,8E0,1.3E1,1E0,6E0,2E0,1E0,1E0,1E0],"tree_param":{"num_deleted":"0","num_feature":"10","num_nodes":"97","size_leaf_vector":"0"}},{"base_weights":[4.099378E2,4.831755E3,-2.923019E3,-1.087099E4,9.146546E3,-2.1253984E4,-1.1060328E3,-1.9244559E4,6.711128E3,3.7855105E4,4.2968027E3,-4.8930242E4,3.573038E4,1.2971657E4,-3.642784E3,1.1675484E4,-2.0171418E4,5.4925094E4,-3.265222E3,1.29849516E5,3.1515566E4,-1.0585397E4,8.870956E3,-5.9046027E4,-2.325754E4,-1.2257363E4,9.376564E4,3.3389038E3,3.158658E4,-1.8350754E4,-9.8421814E2,-4.7629582E4,-1.783992E4,8.20358E4,1.8529594E4,-2.1484938E4,3.3634957E4,2.09541E4,7.076227E4,-4.309099E3,-3.9391555E4,6.617663E4,9.5982965E2,-9.860431E4,-4.0697637E4,-1.4575078E3,-5.0133203E4,3.5377266E3,-2.2449963E4,1.2391308E5,2.230051E4,6.4039053E3,-3.6584082E4,9.257258E4,1.5376546E4,5.1853344E4,-2.084254E4,1.4029042E3,-1.0913075E4,-1.5671823E4,-4.223331E4,-3.2993875E4,-5.2568774E3,4.2335707E4,-9.264773E3,-1.3200195E4,3.2423201E4,9.328465E4,-3.2165969E4,-2.0432299E4,1.3552934E4,3.6958797E4,-6.6491484E4,9.309976E4,-1.215395E4,8.859961E4,-1.4980651E3,-1.2469267E5,2.8545625E3,-1.6126203E4,-4.592928E4,-1.3648871E4,1.52701455E4,1.1807203E4,-3.1411667E3,-3.2034969E4,-5.3683022E3,2.752464E4,5.906125E3,-2.950899E3,2.4623982E4,5.0282613E4,7.652476E2,-2.7726455E4,2.690073E3,-2.0253109E3,1.780581E4,-1.9999691E4,6.8759375E3],"categories":[],"categories_nodes":[],"categories_segments":[],"categories_sizes":[],"default_left":[true,true,true,true,true,true,true,true,true,true,true,true,true,true,true,false,true,true,true,false,true,true,true,true,true,true,true,true,true,true,true,false,true,false,false,true,true,true,true,true,true,true,true,true,true,true,false,true,true,false,true,true,false,false,true,false,true,true,true,false,false,false,false,false,false,false,false,false,false,false,false,false,false,false,false,false,false,false,false,false,false,false,false,false,false,false,false,false,false,false,false,false,false,false,false,false,false,false,false],"id":12,"left_children":[1,3,5,7,9,11,13,15,17,19,21,23,25,27,29,-1,31,33,35,-1,37,39,41,43,45,47,49,51,53,55,57,-1,59,-1,-1,61,63,65,67,69,71,73,75,77,79,81,-1,83,85,-1,87,89,-1,-1,91,-1,93,95,97,-1,-1,-1,-1,-1,-1,-1,-1,-1,-1,-1,-1,-1,-1,-1,-1,-1,-1,-1,-1,-1,-1,-1,-1,-1,-1,-1,-1,-1,-1,-1,-1,-1,-1,-1,-1,-1,-1,-1,-1],"loss_changes":[1.0905379E10,2.1645154E10,1.4031199E10,1.0288184E10,3.464295E10,6.1679157E10,1.3795845E10,1.5828009E9,1.1244396E10,1.6896545E10,1.472963E10,5.3756314E9,3.735733E10,1.0472602E10,1.2767556E10,0E0,2.0925338E9,2.4227174E9,1.4168373E10,0E0,1.3021172E10,9.049106E9,7.473696E10,9.046417E9,5.19788E9,1.3681225E9,1.0157773E10,5.1276344E9,1.8343938E10,9.826188E9,6.6046787E9,0E0,1.662848E9,0E0,0E0,2.4397732E9,3.0063718E9,1.1788615E10,1.9230351E10,1.2660897E10,2.1080429E10,4.331285E10,3.1585976E10,1.3595296E10,1.0565386E9,1.4319528E9,0E0,2.5835883E8,6.4516966E8,0E0,9.303795E7,6.5504497E9,0E0,0E0,8.62987E9,0E0,8.0134164E9,1.2689049E10,8.866705E9,0E0,0E0,0E0,0E0,0E0,0E0,0E0,0E0,0E0,0E0,0E0,0E0,0E0,0E0,0E0,0E0,0E0,0E0,0E0,0E0,0E0,0E0,0E0,0E0,0E0,0E0,0E0,0E0,0E0,0E0,0E0,0E0,0E0,0E0,0E0,0E0,0E0,0E0,0E0,0E0],"parents":[2147483647,0,0,1,1,2,2,3,3,4,4,5,5,6,6,7,7,8,8,9,9,10,10,11,11,12,12,13,13,14,14,16,16,17,17,18,18,20,20,21,21,22,22,23,23,24,24,25,25,26,26,27,27,28,28,29,29,30,30,32,32,35,35,36,36,37,37,38,38,39,39,40,40,41,41,42,42,43,43,44,44,45,45,47,47,48,48,50,50,51,51,54,54,56,56,57,57,58,58],"right_children":[2,4,6,8,10,12,14,16,18,20,22,24,26,28,30,-1,32,34,36,-1,38,40,42,44,46,48,50,52,54,56,58,-1,60,-1,-1,62,64,66,68,70,72,74,76,78,80,82,-1,84,86,-1,88,90,-1,-1,92,-1,94,96,98,-1,-1,-1,-1,-1,-1,-1,-1,-1,-1,-1,-1,-1,-1,-1,-1,-1,-1,-1,-1,-1,-1,-1,-1,-1,-1,-1,-1,-1,-1,-1,-1,-1,-1,-1,-1,-1,-1,-1,-1],"split_conditions":[3.872464E1,5.75E1,3.8727066E1,3.871909E1,1.5E0,-9.132012E0,3.872912E1,-9.1654E0,3.8719826E1,5.95E1,8.9E1,-9.1394E0,8.55E1,1.435E2,3.8731956E1,7.005291E3,-9.15556E0,4.95E1,-9.130344E0,7.790971E4,3.8722298E1,3.872226E1,1.5E0,3.8725372E1,-9.133401E0,1.5E0,1.455E2,-9.130444E0,1.465E2,5E-1,-9.129276E0,-2.857775E4,3.8717834E1,4.922148E4,1.1117757E4,-9.139095E0,5.55E1,-9.1503105E0,7.95E1,3.871741E1,6.3E1,3.8720535E1,9.25E1,1.73E2,3.8725704E1,1.05E2,-3.0079924E4,6.3E1,8.1E1,7.434785E4,1.595E2,3.5E0,-2.195045E4,5.554355E4,5E-1,3.1112008E4,1.825E2,-9.137341E0,3.875566E1,-9.403095E3,-2.5339986E4,-1.9796326E4,-3.1541267E3,2.5401426E4,-5.5588643E3,-7.9201177E3,1.9453922E4,5.5970793E4,-1.9299582E4,-1.225938E4,8.1317603E3,2.217528E4,-3.989489E4,5.5859855E4,-7.2923706E3,5.315977E4,-8.9883905E2,-7.481561E4,1.7127375E3,-9.675723E3,-2.755757E4,-8.1893228E3,9.162088E3,7.0843223E3,-1.8847001E3,-1.9220982E4,-3.2209814E3,1.6514785E4,3.543675E3,-1.7705394E3,1.477439E4,3.0169568E4,4.591486E2,-1.6635873E4,1.6140438E3,-1.2151866E3,1.0683486E4,-1.1999815E4,4.1255625E3],"split_indices":[3,0,3,3,1,4,3,4,3,0,0,4,0,0,3,0,4,0,4,0,3,3,2,3,4,2,0,4,0,2,4,0,3,0,0,4,0,4,0,3,0,3,0,0,3,0,0,0,0,0,0,5,0,0,7,0,0,4,3,0,0,0,0,0,0,0,0,0,0,0,0,0,0,0,0,0,0,0,0,0,0,0,0,0,0,0,0,0,0,0,0,0,0,0,0,0,0,0,0],"split_type":[0,0,0,0,0,0,0,0,0,0,0,0,0,0,0,0,0,0,0,0,0,0,0,0,0,0,0,0,0,0,0,0,0,0,0,0,0,0,0,0,0,0,0,0,0,0,0,0,0,0,0,0,0,0,0,0,0,0,0,0,0,0,0,0,0,0,0,0,0,0,0,0,0,0,0,0,0,0,0,0,0,0,0,0,0,0,0,0,0,0,0,0,0,0,0,0,0,0,0],"sum_hessian":[7.38E2,3.17E2,4.21E2,6.8E1,2.49E2,3.7E1,3.84E2,4.6E1,2.2E1,3.5E1,2.14E2,2.5E1,1.2E1,5.8E1,3.26E2,1E0,4.5E1,3E0,1.9E1,1E0,3.4E1,5E1,1.64E2,1.7E1,8E0,7E0,5E0,3.9E1,1.9E1,4.9E1,2.77E2,2E0,4.3E1,1E0,2E0,1.3E1,6E0,2.8E1,6E0,4.2E1,8E0,1.9E1,1.45E2,4E0,1.3E1,5E0,3E0,3E0,4E0,3E0,2E0,3.7E1,2E0,3E0,1.6E1,1E0,4.8E1,2.24E2,5.3E1,4.1E1,2E0,7E0,6E0,5E0,1E0,7E0,2.1E1,5E0,1E0,2.2E1,2E1,2E0,6E0,1.4E1,5E0,3E0,1.42E2,3E0,1E0,3E0,1E1,3E0,2E0,1E0,2E0,2E0,2E0,1E0,1E0,2.5E1,1.2E1,4E0,1.2E1,3.7E1,1.1E1,1.86E2,3.8E1,3.5E1,1.8E1],"tree_param":{"num_deleted":"0","num_feature":"10","num_nodes":"99","size_leaf_vector":"0"}},{"base_weights":[4.8686578E2,-4.2942355E2,8.1478833E3,9.644023E2,-7.7367607E3,1.7352785E4,-8.057515E2,6.2566437E2,3.8160188E4,4.1601343E3,-1.5010639E4,6.2411207E4,8.889745E3,-3.0328664E4,6.1633384E3,8.9045685E2,-4.8114855E4,-9.642581E4,9.592314E4,-9.747452E3,2.6502453E4,-4.1812617E3,-2.7865182E4,1.06374586E5,1.3825875E4,6.4853625E4,1.3805433E3,-1.2075384E4,-7.903081E4,1.0574138E2,3.4407832E4,4.0307065E3,-2.452919E3,-5.1230625E3,-6.702922E4,1.1204606E5,2.3757188E4,3.2635688E4,-2.4096178E4,4.883541E4,-1.9299297E3,1.6343028E4,-1.238963E4,-4.6776367E4,9.048358E3,-2.3802083E3,3.1242062E4,-9.436E3,9.27755E4,-2.4103633E4,1.1294327E4,-5.3778938E4,3.831698E3,1.327923E4,-9.971971E3,7.311469E4,1.2035525E4,3.6862683E2,2.3471338E4,3.2157768E4,-4.495399E3,-3.4099418E4,6.615761E4,1.0630071E4,-3.9741004E4,1.4428156E4,6.3627676E4,1.7585375E4,-7.235741E3,5.5885887E4,-1.4230875E4,-2.257072E4,3.0775482E2,-1.1381104E5,-1.6841408E4,-2.1749697E4,5.036396E4,-4.1241562E4,2.3906084E4,-1.3258526E4,2.0742307E4,2.7661E4,-1.4988203E4,-2.0754E4,1.7848166E4,-5.8506375E4,-3.2794219E3,7.2790625E2,2.8613E4],"categories":[],"categories_nodes":[],"categories_segments":[],"categories_sizes":[],"default_left":[true,true,true,true,true,true,true,true,true,true,true,true,true,true,true,true,true,false,true,true,true,true,true,false,true,true,true,true,false,true,true,true,true,false,false,false,false,true,true,true,true,true,true,true,true,false,false,false,false,true,true,false,true,true,true,false,true,false,false,false,false,false,false,false,false,false,false,false,false,false,false,false,false,false,false,false,false,false,false,false,false,false,false,false,false,false,false,false,false],"id":13,"left_children":[1,3,5,7,9,11,13,15,17,19,21,23,25,27,29,31,33,-1,35,37,39,41,43,-1,45,47,49,51,-1,53,55,57,59,-1,-1,-1,-1,61,63,65,67,69,71,73,75,-1,-1,-1,-1,77,79,-1,81,83,85,-1,87,-1,-1,-1,-1,-1,-1,-1,-1,-1,-1,-1,-1,-1,-1,-1,-1,-1,-1,-1,-1,-1,-1,-1,-1,-1,-1,-1,-1,-1,-1,-1,-1],"loss_changes":[5.1913723E9,6.74012E9,6.5256125E9,6.979963E9,9.235755E9,1.4314244E10,8.623553E9,7.165137E9,4.8119874E10,1.2998838E10,9.069849E9,1.1340325E10,1.4196115E10,6.153821E9,5.8121687E9,5.7844204E9,2.093206E9,0E0,1.986773E9,1.65978E10,1.025579E10,6.43575E9,2.1367124E10,0E0,1.20451E9,9.175985E9,8.1037046E9,4.8517356E9,0E0,3.9825528E9,4.3123907E9,2.0209246E10,1.9018121E10,0E0,0E0,0E0,0E0,1.7916842E10,1.1289336E10,3.6594995E9,9.551854E8,1.4095746E10,3.4982141E9,3.821164E10,1.5093388E10,0E0,0E0,0E0,0E0,8.3917025E9,5.6107336E9,0E0,3.1058865E9,2.3917478E9,5.3275827E9,0E0,9.152576E8,0E0,0E0,0E0,0E0,0E0,0E0,0E0,0E0,0E0,0E0,0E0,0E0,0E0,0E0,0E0,0E0,0E0,0E0,0E0,0E0,0E0,0E0,0E0,0E0,0E0,0E0,0E0,0E0,0E0,0E0,0E0,0E0],"parents":[2147483647,0,0,1,1,2,2,3,3,4,4,5,5,6,6,7,7,8,8,9,9,10,10,11,11,12,12,13,13,14,14,15,15,16,16,18,18,19,19,20,20,21,21,22,22,24,24,25,25,26,26,27,27,29,29,30,30,31,31,32,32,37,37,38,38,39,39,40,40,41,41,42,42,43,43,44,44,49,49,50,50,52,52,53,53,54,54,56,56],"right_children":[2,4,6,8,10,12,14,16,18,20,22,24,26,28,30,32,34,-1,36,38,40,42,44,-1,46,48,50,52,-1,54,56,58,60,-1,-1,-1,-1,62,64,66,68,70,72,74,76,-1,-1,-1,-1,78,80,-1,82,84,86,-1,88,-1,-1,-1,-1,-1,-1,-1,-1,-1,-1,-1,-1,-1,-1,-1,-1,-1,-1,-1,-1,-1,-1,-1,-1,-1,-1,-1,-1,-1,-1,-1,-1],"split_conditions":[3.5E0,1.625E2,2.385E2,1.615E2,3.8727837E1,1.5E0,2.625E2,1.605E2,2.5E0,3.8721535E1,-9.1484165E0,1.95E2,3.8715576E1,9.5E0,6.5E0,-9.142372E0,2.5E0,-5.785549E4,3.874504E1,1.5E0,3.5E0,2.5E0,-9.135208E0,6.3824754E4,4.5E0,-9.153233E0,3.5E0,3.8721058E1,-4.741849E4,3.872087E1,8E0,-9.144426E0,3.87121E1,-3.0738376E3,-4.021753E4,6.722764E4,1.4254313E4,3.8712006E1,-9.156547E0,3.872309E1,2.5E0,1.825E2,2.03E2,1.945E2,3.5E0,-1.428125E3,1.8745238E4,-5.6616E3,5.56653E4,3.874286E1,3.872865E1,-3.2267363E4,4.5E0,3.870909E1,3.8724533E1,4.3868812E4,5.51E2,2.211761E2,1.4082804E4,1.9294662E4,-2.6972395E3,-2.0459652E4,3.9694566E4,6.378043E3,-2.3844604E4,8.656895E3,3.8176605E4,1.0551226E4,-4.341445E3,3.3531535E4,-8.538525E3,-1.3542433E4,1.846529E2,-6.8286625E4,-1.0104846E4,-1.3049819E4,3.0218377E4,-2.474494E4,1.4343651E4,-7.955116E3,1.2445385E4,1.6596602E4,-8.992922E3,-1.24524E4,1.07089E4,-3.510383E4,-1.9676532E3,4.3674377E2,1.71678E4],"split_indices":[2,0,0,0,3,5,0,0,1,3,4,0,3,5,5,4,2,0,3,5,1,2,4,0,2,4,5,3,0,3,5,4,3,0,0,0,0,3,4,3,2,0,0,0,1,0,0,0,0,3,3,0,1,3,3,0,0,0,0,0,0,0,0,0,0,0,0,0,0,0,0,0,0,0,0,0,0,0,0,0,0,0,0,0,0,0,0,0,0],"split_type":[0,0,0,0,0,0,0,0,0,0,0,0,0,0,0,0,0,0,0,0,0,0,0,0,0,0,0,0,0,0,0,0,0,0,0,0,0,0,0,0,0,0,0,0,0,0,0,0,0,0,0,0,0,0,0,0,0,0,0,0,0,0,0,0,0,0,0,0,0,0,0,0,0,0,0,0,0,0,0,0,0,0,0,0,0,0,0,0,0],"sum_hessian":[7.38E2,6.6E2,7.8E1,5.55E2,1.05E2,3.8E1,4E1,5.51E2,4E0,4E1,6.5E1,5E0,3.3E1,7E0,3.3E1,5.49E2,2E0,1E0,3E0,2.5E1,1.5E1,3.6E1,2.9E1,2E0,3E0,3E0,3E1,6E0,1E0,2.8E1,5E0,2.83E2,2.66E2,1E0,1E0,2E0,1E0,6E0,1.9E1,8E0,7E0,1E1,2.6E1,1.9E1,1E1,2E0,1E0,1E0,2E0,8E0,2.2E1,1E0,5E0,1.2E1,1.6E1,1E0,4E0,2.39E2,4.4E1,1.4E1,2.52E2,2E0,4E0,6E0,1.3E1,3E0,5E0,1E0,6E0,4E0,6E0,1.4E1,1.2E1,5E0,1.4E1,6E0,4E0,6E0,2E0,6E0,1.6E1,2E0,3E0,1E0,1.1E1,1E0,1.5E1,3E0,1E0],"tree_param":{"num_deleted":"0","num_feature":"10","num_nodes":"89","size_leaf_vector":"0"}},{"base_weights":[3.1960522E2,-1.0718073E4,1.5455941E3,1.5819548E4,-2.3773322E4,5.265508E3,-7.604341E2,-5.0067666E3,4.7563695E4,-1.771259E5,-1.7028047E4,1.2802725E4,-3.5886002E2,-4.6759688E4,-3.086066E2,-2.3761824E4,2.2495709E4,7.428045E4,-1.1071559E4,-2.4771312E4,1.196972E4,5.75766E3,4.8097344E4,-3.846105E3,2.0745854E4,-8.825419E4,-3.4967917E3,-5.7364507E3,1.1118099E3,-6.5948594E3,-3.4100656E4,3.9407563E3,4.590873E4,1.0638621E5,-3.9759583E3,-1.679237E4,3.0254375E3,-1.1413737E4,-4.7806004E4,-1.5939097E4,3.789025E4,2.517082E4,-5.0148726E3,-2.8908791E4,5.9532414E4,2.8201729E3,-1.8416764E4,2.7592402E4,-2.9517584E4,-1.244187E4,1.2878239E4,4.4185855E4,7.081755E2,-2.450443E4,3.9986406E3,-2.0834792E3,-4.9578375E4,1.1132414E4,-1.23929375E4,4.180625E2,-6.402E3,1.886512E4,-1.7778307E4,-5.914427E4,1.34690625E4,-2.4947496E4,1.4531453E4,4.9365168E4,1.98015E4,6.9984263E3,6.6263484E4,-7.110822E4,9.7515625E2,-3.5627406E4,-7.7157812E3,-1.3486711E4,7.742349E4,7.001622E4,1.2425605E3,-2.8324146E4,1.0273985E4,5.3995887E4,7.6873804E3,2.0615875E4,-6.491225E4,-8.3449795E3,-3.3316895E4,4.800186E4,5.207603E3,-2.228732E3,3.7143296E3],"categories":[],"categories_nodes":[],"categories_segments":[],"categories_sizes":[],"default_left":[true,true,true,true,true,true,true,true,true,false,true,true,true,true,true,true,true,true,true,true,true,true,true,true,true,false,false,true,true,true,true,true,false,false,true,false,false,true,true,true,true,true,true,true,true,true,true,true,true,true,true,false,true,false,false,false,false,false,false,false,false,false,false,false,false,false,false,false,false,false,false,false,false,false,false,false,false,false,false,false,false,false,false,false,false,false,false,false,false,false,false],"id":14,"left_children":[1,3,5,7,9,11,13,15,17,-1,19,21,23,25,27,29,31,33,35,37,39,41,43,45,47,-1,-1,49,51,53,55,57,-1,-1,59,-1,-1,61,63,65,67,69,71,73,75,77,79,81,83,85,87,-1,89,-1,-1,-1,-1,-1,-1,-1,-1,-1,-1,-1,-1,-1,-1,-1,-1,-1,-1,-1,-1,-1,-1,-1,-1,-1,-1,-1,-1,-1,-1,-1,-1,-1,-1,-1,-1,-1,-1],"loss_changes":[1.0016399E10,2.601409E10,5.717283E9,1.6767685E10,4.8696394E10,1.0815072E10,8.546582E9,8.787557E9,1.6490365E10,0E0,1.1299353E10,2.6824081E10,1.0897919E10,6.8684124E9,3.159871E9,1.5483469E9,2.8580836E9,1.8014454E10,3.7393997E8,1.1451802E10,8.5623383E9,1.9366894E10,1.75725E10,1.2388333E10,8.041138E9,0E0,0E0,1.0769853E10,5.617418E9,1.04742976E9,2.8679547E9,7.2524454E8,0E0,0E0,3.4896024E7,0E0,0E0,5.3458555E9,1.0524989E10,2.0098857E9,2.6512998E8,2.4176146E10,2.382621E10,1.505362E8,2.1949006E10,9.238969E9,1.1661734E10,9.568124E9,6.6633656E9,5.108233E9,5.944569E9,0E0,2.8600387E9,0E0,0E0,0E0,0E0,0E0,0E0,0E0,0E0,0E0,0E0,0E0,0E0,0E0,0E0,0E0,0E0,0E0,0E0,0E0,0E0,0E0,0E0,0E0,0E0,0E0,0E0,0E0,0E0,0E0,0E0,0E0,0E0,0E0,0E0,0E0,0E0,0E0,0E0],"parents":[2147483647,0,0,1,1,2,2,3,3,4,4,5,5,6,6,7,7,8,8,10,10,11,11,12,12,13,13,14,14,15,15,16,16,17,17,18,18,19,19,20,20,21,21,22,22,23,23,24,24,27,27,28,28,29,29,30,30,31,31,34,34,37,37,38,38,39,39,40,40,41,41,42,42,43,43,44,44,45,45,46,46,47,47,48,48,49,49,50,50,52,52],"right_children":[2,4,6,8,10,12,14,16,18,-1,20,22,24,26,28,30,32,34,36,38,40,42,44,46,48,-1,-1,50,52,54,56,58,-1,-1,60,-1,-1,62,64,66,68,70,72,74,76,78,80,82,84,86,88,-1,90,-1,-1,-1,-1,-1,-1,-1,-1,-1,-1,-1,-1,-1,-1,-1,-1,-1,-1,-1,-1,-1,-1,-1,-1,-1,-1,-1,-1,-1,-1,-1,-1,-1,-1,-1,-1,-1,-1],"split_conditions":[3.8711716E1,-9.151243E0,3.8725197E1,2.5E0,-9.151156E0,-9.142372E0,3.872534E1,3.8710556E1,3.5E0,-1.0627555E5,-9.140417E0,-9.144975E0,1.375E2,1.5E0,-9.151126E0,-9.156764E0,6.75E1,3.5E0,3.870816E1,3.8709152E1,1.13E2,1.025E2,3.871255E1,1.5E0,4.5E0,-5.2952516E4,-2.0980752E3,3.875423E1,-9.151016E0,8.05E1,5.4E1,3.8711174E1,2.754524E4,6.383173E4,1.825E2,-1.0075422E4,1.8152626E3,1.5E0,5E-1,3.8711308E1,1.605E2,9E1,1.165E2,9.7E1,5.65E1,3.871203E1,1.225E2,3.5E0,1.78E2,-9.152298E0,3.875673E1,2.6511514E4,3.8736317E1,-1.4702658E4,2.3991846E3,-1.2500876E3,-2.9747025E4,6.6794487E3,-7.4357627E3,2.5083751E2,-3.8412002E3,1.1319072E4,-1.0666984E4,-3.5486562E4,8.081438E3,-1.4968498E4,8.718872E3,2.9619102E4,1.18809E4,4.199056E3,3.9758094E4,-4.2664934E4,5.8509375E2,-2.1376445E4,-4.6294688E3,-8.092027E3,4.6454098E4,4.2009734E4,7.455364E2,-1.6994488E4,6.1643916E3,3.2397533E4,4.612428E3,1.2369525E4,-3.894735E4,-5.006988E3,-1.9990137E4,2.8801117E4,3.124562E3,-1.3372393E3,2.228598E3],"split_indices":[3,4,3,5,4,4,3,3,5,0,4,4,0,2,4,4,0,1,3,3,0,0,3,2,5,0,0,3,4,0,0,3,0,0,0,0,0,5,6,3,0,0,0,0,0,3,0,1,0,4,3,0,3,0,0,0,0,0,0,0,0,0,0,0,0,0,0,0,0,0,0,0,0,0,0,0,0,0,0,0,0,0,0,0,0,0,0,0,0,0,0],"split_type":[0,0,0,0,0,0,0,0,0,0,0,0,0,0,0,0,0,0,0,0,0,0,0,0,0,0,0,0,0,0,0,0,0,0,0,0,0,0,0,0,0,0,0,0,0,0,0,0,0,0,0,0,0,0,0,0,0,0,0,0,0,0,0,0,0,0,0,0,0,0,0,0,0,0,0,0,0,0,0,0,0,0,0,0,0,0,0,0,0,0,0],"sum_hessian":[7.38E2,7.3E1,6.65E2,2.4E1,4.9E1,2.54E2,4.11E2,1.5E1,9E0,1E0,4.8E1,1.08E2,1.46E2,3E0,4.08E2,9E0,6E0,6E0,3E0,3.8E1,1E1,9.1E1,1.7E1,1.26E2,2E1,1E0,2E0,8.4E1,3.24E2,4E0,5E0,4E0,2E0,4E0,2E0,2E0,1E0,2.5E1,1.3E1,5E0,5E0,3.2E1,5.9E1,2E0,1.5E1,8.7E1,3.9E1,1.8E1,2E0,6.2E1,2.2E1,2E0,3.22E2,1E0,3E0,2E0,3E0,3E0,1E0,1E0,1E0,4E0,2.1E1,1.1E1,2E0,4E0,1E0,2E0,3E0,2.3E1,9E0,4E0,5.5E1,1E0,1E0,3E0,1.2E1,1E0,8.6E1,2.9E1,1E1,7E0,1.1E1,1E0,1E0,5.3E1,9E0,3E0,1.9E1,1.63E2,1.59E2],"tree_param":{"num_deleted":"0","num_feature":"10","num_nodes":"91","size_leaf_vector":"0"}},{"base_weights":[9.216589E1,-5.133612E3,1.154231E3,-8.755827E3,5.2288013E3,7.2190086E4,8.046359E2,-3.9481838E3,-3.1643348E4,1.047266E5,-4.5673994E3,3.3881682E3,-1.7148976E3,-6.0398516E3,2.7790137E4,5.5296606E3,-5.4504117E4,-1.251262E4,2.445516E4,2.256203E2,1.2052613E4,-2.3010613E4,4.732672E2,5.109585E3,-1.1494573E4,4.850573E4,-2.1755E3,-1.3339125E4,2.3026031E4,-1.23988125E5,-3.300277E4,6.8132314E3,-2.3811738E4,1.0890844E4,3.1895688E4,4.8656084E3,-8.293163E3,-3.601367E4,1.5689259E4,-8.728249E4,-1.5015567E4,1.0609117E4,-3.3666821E3,-8.904325E3,3.1017018E4,-2.8903795E4,-3.9203254E3,2.1178125E3,-5.4010625E3,-1.7993938E4,2.9265625E2,2.4199062E3,2.9074771E4,-4.78251E4,-1.1571888E4,-6.8205415E3,2.1819113E4,-6.32305E4,-9.84814E3,3.803873E4,6.7132812E3,2.074756E4,3.009617E3,-1.7082941E4,-1.4209822E2,-4.485847E4,-1.2202719E4,3.2568113E4,3.9724377E3,2.35785E3,-3.390985E4,-2.402005E4,1.28061E4,-1.0400644E4,2.3332813E1],"categories":[],"categories_nodes":[],"categories_segments":[],"categories_sizes":[],"default_left":[true,true,true,true,true,false,true,true,true,false,true,true,true,true,true,true,true,true,true,true,true,true,true,true,true,false,true,true,true,false,true,true,true,false,true,true,true,true,true,false,true,true,true,false,false,false,false,false,false,false,false,false,false,false,false,false,false,false,false,false,false,false,false,false,false,false,false,false,false,false,false,false,false,false,false],"id":15,"left_children":[1,3,5,7,9,-1,11,13,15,-1,17,19,21,23,25,27,29,31,33,35,37,39,41,43,45,-1,47,49,51,-1,53,55,57,-1,59,61,63,65,67,-1,69,71,73,-1,-1,-1,-1,-1,-1,-1,-1,-1,-1,-1,-1,-1,-1,-1,-1,-1,-1,-1,-1,-1,-1,-1,-1,-1,-1,-1,-1,-1,-1,-1,-1],"loss_changes":[4.1073021E9,4.737785E9,1.5211771E10,1.01069E10,3.2647449E10,0E0,3.9960758E9,5.3450885E9,1.3900207E10,0E0,7.45383E9,8.2995113E9,1.4503936E10,4.559451E9,3.2111567E9,2.6184814E9,1.0841764E10,5.6220406E9,3.5739725E8,8.854747E9,1.4723021E10,1.3587154E10,1.1050694E10,9.353681E9,6.4784635E9,0E0,5.3114816E7,2.5978758E8,4.2694643E8,0E0,2.303099E9,2.195286E9,8.1812183E9,0E0,3.6163123E8,4.2107392E9,5.656922E9,7.139405E8,1.4899421E10,0E0,8.944189E9,6.24137E9,4.912776E9,0E0,0E0,0E0,0E0,0E0,0E0,0E0,0E0,0E0,0E0,0E0,0E0,0E0,0E0,0E0,0E0,0E0,0E0,0E0,0E0,0E0,0E0,0E0,0E0,0E0,0E0,0E0,0E0,0E0,0E0,0E0,0E0],"parents":[2147483647,0,0,1,1,2,2,3,3,4,4,6,6,7,7,8,8,10,10,11,11,12,12,13,13,14,14,15,15,16,16,17,17,18,18,19,19,20,20,21,21,22,22,23,23,24,24,26,26,27,27,28,28,30,30,31,31,32,32,34,34,35,35,36,36,37,37,38,38,40,40,41,41,42,42],"right_children":[2,4,6,8,10,-1,12,14,16,-1,18,20,22,24,26,28,30,32,34,36,38,40,42,44,46,-1,48,50,52,-1,54,56,58,-1,60,62,64,66,68,-1,70,72,74,-1,-1,-1,-1,-1,-1,-1,-1,-1,-1,-1,-1,-1,-1,-1,-1,-1,-1,-1,-1,-1,-1,-1,-1,-1,-1,-1,-1,-1,-1,-1,-1],"split_conditions":[3.8714592E1,1.41E2,3.8714737E1,1.185E2,1.44E2,4.3314055E4,1.095E2,4.5E0,3.8709675E1,6.2835965E4,-9.140417E0,1.5E0,3.871933E1,-9.147844E0,1.5E0,3.870734E1,1.215E2,3.870868E1,3.871112E1,7.15E1,5E-1,1.165E2,3.8727913E1,7.65E1,-9.143507E0,2.910344E4,9.45E1,1.29E2,-9.154195E0,-7.4392875E4,3.871304E1,-9.148774E0,3.8711037E1,6.5345063E3,3.5E0,-9.16192E0,-9.13896E0,-9.144173E0,-9.143583E0,-5.2369496E4,-9.152237E0,-9.161619E0,3.8736317E1,-5.342595E3,1.861021E4,-1.7342277E4,-2.3521953E3,1.2706875E3,-3.2406377E3,-1.0796363E4,1.7559375E2,1.4519438E3,1.7444863E4,-2.8695062E4,-6.943133E3,-4.092325E3,1.3091469E4,-3.79383E4,-5.908884E3,2.2823238E4,4.027969E3,1.2448537E4,1.8057703E3,-1.0249766E4,-8.5258934E1,-2.6915082E4,-7.3216313E3,1.954087E4,2.3834626E3,1.4147101E3,-2.0345912E4,-1.4412031E4,7.68366E3,-6.240386E3,1.3999688E1],"split_indices":[3,0,3,0,0,0,0,5,3,0,4,2,3,4,2,3,0,3,3,0,5,0,3,0,4,0,0,0,4,0,3,4,3,0,1,4,4,4,4,0,4,4,3,0,0,0,0,0,0,0,0,0,0,0,0,0,0,0,0,0,0,0,0,0,0,0,0,0,0,0,0,0,0,0,0],"split_type":[0,0,0,0,0,0,0,0,0,0,0,0,0,0,0,0,0,0,0,0,0,0,0,0,0,0,0,0,0,0,0,0,0,0,0,0,0,0,0,0,0,0,0,0,0,0,0,0,0,0,0,0,0,0,0,0,0,0,0,0,0,0,0,0,0,0,0,0,0,0,0,0,0,0,0],"sum_hessian":[7.38E2,1.24E2,6.14E2,9.2E1,3.2E1,2E0,6.12E2,7.7E1,1.5E1,2E0,3E1,3.02E2,3.1E2,7.3E1,4E0,6E0,9E0,2.4E1,6E0,2.22E2,8E1,2.8E1,2.82E2,2.4E1,4.9E1,2E0,2E0,3E0,3E0,1E0,8E0,9E0,1.5E1,3E0,3E0,1.44E2,7.8E1,5E0,7.5E1,2E0,2.6E1,7.7E1,2.05E2,1.6E1,8E0,1.4E1,3.5E1,1E0,1E0,2E0,1E0,1E0,2E0,4E0,4E0,5E0,4E0,3E0,1.2E1,2E0,1E0,1.4E1,1.3E2,3.7E1,4.1E1,3E0,2E0,3E1,4.5E1,1.4E1,1.2E1,4E0,7.3E1,6.6E1,1.39E2],"tree_param":{"num_deleted":"0","num_feature":"10","num_nodes":"75","size_leaf_vector":"0"}},{"base_weights":[-5.644326E1,-1.0223698E4,5.245662E2,-3.0862797E4,4.819985E3,2.8598225E4,3.4800674E1,-4.8664062E2,-5.7805312E4,1.9978621E4,-1.2000203E4,1.4156341E4,9.370947E4,1.028229E3,-4.880912E3,-7.802114E3,1.6731678E4,-1.8691375E4,-7.424038E4,1.6024062E3,2.5327246E4,-1.3498847E4,2.2224375E3,3.63608E4,-3.7206072E3,-9.805469E3,1.686022E3,-1.0112106E4,3.9081353E3,8.303526E3,-1.5913075E4,-2.2962104E4,-2.9195938E3,-9.9486875E3,8.782333E3,2.3341328E3,2.7618242E4,-6.4848125E3,-2.0610725E4,-2.9500047E4,2.2978984E4,-3.1428906E2,-3.9421117E4,1.9229862E3,-3.0656406E4,-4.878301E3,-4.259325E4,2.2682521E4,-3.8398384E3,-4.2252812E3,-1.7768703E4,3.6411914E4,1.3292925E4,1.4125E1,-7.5769897E3,3.0954271E4,-4.534375E2,-9.975994E3,2.2666547E4,3.043448E3,-5.408988E4,2.6639031E4,1.6416018E3,-1.218775E4,-4.3011188E4,-2.3772527E4,-6.016166E1,-5.991733E4,1.7788709E4,3.0985787E4,-1.5310292E4,-1.2148764E4,1.3123452E4],"categories":[],"categories_nodes":[],"categories_segments":[],"categories_sizes":[],"default_left":[true,true,true,true,true,true,true,true,true,true,true,true,false,true,true,true,false,true,false,true,true,true,false,false,true,true,true,true,true,false,true,false,false,false,false,false,true,true,false,false,true,true,true,true,true,true,true,true,true,false,false,false,false,false,false,false,false,false,false,false,false,false,false,false,false,false,false,false,false,false,false,false,false],"id":16,"left_children":[1,3,5,7,9,11,13,15,17,19,21,23,-1,25,27,29,-1,31,-1,33,35,37,-1,-1,39,41,43,45,47,-1,49,-1,-1,-1,-1,-1,51,53,-1,-1,55,57,59,61,63,65,67,69,71,-1,-1,-1,-1,-1,-1,-1,-1,-1,-1,-1,-1,-1,-1,-1,-1,-1,-1,-1,-1,-1,-1,-1,-1],"loss_changes":[4.3712246E9,1.2569322E10,9.622517E9,1.3882509E10,6.3593733E9,9.953051E9,3.369533E9,1.2638266E9,4.394193E9,1.236075E9,2.8622733E8,4.5030175E9,0E0,4.1067208E9,5.373124E9,1.0468645E9,0E0,2.0135283E8,0E0,4.190701E8,4.6110925E8,4.139721E8,0E0,0E0,5.496245E9,9.261906E9,4.211689E9,1.2200318E10,6.4882427E9,0E0,3.2483456E7,0E0,0E0,0E0,0E0,0E0,6.477399E8,5.0095456E7,0E0,0E0,7.627768E8,5.9984993E9,5.1498824E9,3.703726E9,3.8628736E8,5.823857E9,1.1528153E10,4.576066E9,4.66969E9,0E0,0E0,0E0,0E0,0E0,0E0,0E0,0E0,0E0,0E0,0E0,0E0,0E0,0E0,0E0,0E0,0E0,0E0,0E0,0E0,0E0,0E0,0E0,0E0],"parents":[2147483647,0,0,1,1,2,2,3,3,4,4,5,5,6,6,7,7,8,8,9,9,10,10,11,11,13,13,14,14,15,15,17,17,19,19,20,20,21,21,24,24,25,25,26,26,27,27,28,28,30,30,36,36,37,37,40,40,41,41,42,42,43,43,44,44,45,45,46,46,47,47,48,48],"right_children":[2,4,6,8,10,12,14,16,18,20,22,24,-1,26,28,30,-1,32,-1,34,36,38,-1,-1,40,42,44,46,48,-1,50,-1,-1,-1,-1,-1,52,54,-1,-1,56,58,60,62,64,66,68,70,72,-1,-1,-1,-1,-1,-1,-1,-1,-1,-1,-1,-1,-1,-1,-1,-1,-1,-1,-1,-1,-1,-1,-1,-1],"split_conditions":[-9.164612E0,3.8738716E1,-9.163565E0,3.8718994E1,3.5E0,-9.163626E0,3.8741108E1,2.5E0,7.75E1,-9.17707E0,1.05E1,-9.16408E0,5.6225684E4,-9.159477E0,-9.140823E0,1.5E0,1.0039007E4,7.25E1,-4.454423E4,8.4E1,4.1E1,3.8752197E1,1.3334625E3,2.181648E4,2.5E0,-9.160682E0,-9.114629E0,-9.143757E0,-9.129038E0,4.982116E3,7.25E1,-1.3777263E4,-1.7517563E3,-5.969213E3,5.2694E3,1.4004797E3,2.5E0,9.9E1,-1.2366436E4,-1.770003E4,-9.163681E0,1.805E2,9.15E1,-9.158557E0,1.035E2,3.8743393E1,1.72E2,1.63E2,-9.104072E0,-2.535169E3,-1.0661223E4,2.1847148E4,7.9757554E3,8.475E0,-4.546194E3,1.8572564E4,-2.720625E2,-5.9855967E3,1.3599929E4,1.8260688E3,-3.2453928E4,1.5983419E4,9.849611E2,-7.3126504E3,-2.5806713E4,-1.4263517E4,-3.6096996E1,-3.59504E4,1.0673226E4,1.8591473E4,-9.186176E3,-7.2892583E3,7.874072E3],"split_indices":[4,3,4,3,5,4,3,1,0,4,5,4,0,4,4,1,0,0,0,0,0,3,0,0,2,4,4,4,4,0,0,0,0,0,0,0,1,0,0,0,4,0,0,4,0,3,0,0,4,0,0,0,0,0,0,0,0,0,0,0,0,0,0,0,0,0,0,0,0,0,0,0,0],"split_type":[0,0,0,0,0,0,0,0,0,0,0,0,0,0,0,0,0,0,0,0,0,0,0,0,0,0,0,0,0,0,0,0,0,0,0,0,0,0,0,0,0,0,0,0,0,0,0,0,0,0,0,0,0,0,0,0,0,0,0,0,0,0,0,0,0,0,0,0,0,0,0,0,0],"sum_hessian":[7.38E2,3.9E1,6.99E2,1.6E1,2.3E1,1.1E1,6.88E2,8E0,8E0,1.2E1,1.1E1,1E1,1E0,5.73E2,1.15E2,6E0,2E0,3E0,5E0,3E0,9E0,1E1,1E0,4E0,6E0,3.2E1,5.41E2,7.2E1,4.3E1,2E0,4E0,2E0,1E0,1E0,2E0,1E0,8E0,6E0,4E0,3E0,3E0,2.5E1,7E0,5.38E2,3E0,6.3E1,9E0,1.2E1,3.1E1,1E0,3E0,4E0,4E0,1E0,5E0,2E0,1E0,1.8E1,7E0,2E0,5E0,5E0,5.33E2,2E0,1E0,1.2E1,5.1E1,7E0,2E0,1E1,2E0,2.1E1,1E1],"tree_param":{"num_deleted":"0","num_feature":"10","num_nodes":"73","size_leaf_vector":"0"}},{"base_weights":[-6.777945E1,3.7864734E4,-1.7053995E2,-1.985117E4,1.7841124E1,-3.241364E4,1.06603264E2,2.864191E3,-8.533427E2,-1.009867E4,4.994087E3,-6.196957E3,-1.0106948E1,1.2343828E4,-2.200791E4,1.2768081E4,8.057529E2,1.6455729E4,-9.994186E3,1.5326844E3,-4.10053E3],"categories":[],"categories_nodes":[],"categories_segments":[],"categories_sizes":[],"default_left":[true,false,true,false,true,false,true,true,true,true,true,true,true,false,false,false,false,false,false,false,false],"id":17,"left_children":[1,-1,3,-1,5,-1,7,9,11,13,15,17,19,-1,-1,-1,-1,-1,-1,-1,-1],"loss_changes":[2.885545E9,0E0,2.7372516E9,0E0,2.1093626E9,0E0,1.9375804E9,5.268434E9,2.4464074E9,7.4884214E9,5.296463E9,6.5294915E9,2.9724017E9,0E0,0E0,0E0,0E0,0E0,0E0,0E0,0E0],"parents":[2147483647,0,0,2,2,4,4,6,6,7,7,8,8,9,9,10,10,11,11,12,12],"right_children":[2,-1,4,-1,6,-1,8,10,12,14,16,18,20,-1,-1,-1,-1,-1,-1,-1,-1],"split_conditions":[5E-1,2.2718842E4,2.65E1,-1.1910702E4,-5E-1,-1.9448186E4,1.5E0,-9.1560335E0,3.8713753E1,9.25E1,3.8720406E1,-9.158499E0,-9.135565E0,7.4062974E3,-1.3204747E4,7.660849E3,4.8345178E2,9.8734375E3,-5.9965117E3,9.196107E2,-2.4603179E3],"split_indices":[2,0,0,0,5,0,5,4,3,0,3,4,4,0,0,0,0,0,0,0,0],"split_type":[0,0,0,0,0,0,0,0,0,0,0,0,0,0,0,0,0,0,0,0,0],"sum_hessian":[7.38E2,1E0,7.37E2,6E0,7.31E2,1E0,7.3E2,1.88E2,5.42E2,2.6E1,1.62E2,7.3E1,4.69E2,9E0,1.7E1,5.6E1,1.06E2,1E1,6.3E1,3.41E2,1.28E2],"tree_param":{"num_deleted":"0","num_feature":"10","num_nodes":"21","size_leaf_vector":"0"}},{"base_weights":[-3.2407963E1,-2.856418E3,8.686441E2,-1.7293914E3,-5.1721484E4,6.6641826E3,-4.4918268E2,-2.5378887E3,3.366047E4,-1.2758042E4,-8.428591E4,2.1780773E4,-5.30107E1,-1.6255864E4,7.7623914E2,-1.9275193E3,-5.374072E4,2.3817378E3,4.36049E4,-1.1645386E3,3.99685E4,-4.3420918E4,-4.2580977E3,3.1501105E4,3.7474335E1,-6.3814146E3,1.7492319E3,1.8321334E4,-9.423581E3,7.54887E4,6.2654844E3,1.394198E4,-4.4188755E3,-9.4077295E3,-7.554456E4,-1.5129942E4,3.0872428E4,-2.1355021E4,4.7389516E4,-3.8617117E4,5.054537E2,-3.2668513E3,-2.9892305E4,9.912422E3,-4.9059834E3,-1.1895625E4,2.434313E4,-4.726833E4,-9.0827344E2,8.1646664E4,1.61715E4,1.765375E4,-9.526219E3,-1.252966E3,6.5022793E4,3.8204412E3,-1.04144E4,-1.1545219E4,6.198594E2,-1.3116125E4,-8.786264E4,7.327263E3,-4.6929508E4,4.332398E4,1.3805656E4,-2.6667844E4,-5.3446875E3,1.358175E4,5.027323E4,-9.382754E3,-7.775728E4,-5.046826E2,1.0488237E4],"categories":[],"categories_nodes":[],"categories_segments":[],"categories_sizes":[],"default_left":[true,true,true,true,true,true,true,true,false,false,false,true,true,true,true,true,false,true,true,true,false,true,true,true,true,true,true,true,true,true,true,true,true,true,true,true,true,true,true,true,true,false,false,false,false,false,false,false,false,false,false,false,false,false,false,false,false,false,false,false,false,false,false,false,false,false,false,false,false,false,false,false,false],"id":18,"left_children":[1,3,5,7,9,11,13,15,-1,-1,-1,17,19,21,23,25,-1,27,29,31,-1,33,35,37,39,41,43,45,47,49,51,53,55,57,59,61,63,65,67,69,71,-1,-1,-1,-1,-1,-1,-1,-1,-1,-1,-1,-1,-1,-1,-1,-1,-1,-1,-1,-1,-1,-1,-1,-1,-1,-1,-1,-1,-1,-1,-1,-1],"loss_changes":[1.8830052E9,9.766345E9,4.2878886E9,5.120001E9,3.9960832E9,1.0562295E10,8.88463E9,5.300894E9,0E0,0E0,0E0,1.3442049E10,3.2923996E9,1.0568561E10,9.667098E9,2.8279964E9,0E0,3.5601047E9,1.7381591E10,3.6008696E9,0E0,1.0212176E10,9.632874E9,9.411043E9,7.561337E9,5.61266E9,5.20997E9,1.745758E9,3.4999967E9,1.5979233E9,1.6072195E9,1.0174235E10,3.0039926E9,1.3619658E8,2.6885366E9,1.3913908E10,6.746455E8,1.1136845E8,9.458483E7,4.9881257E9,4.170373E9,0E0,0E0,0E0,0E0,0E0,0E0,0E0,0E0,0E0,0E0,0E0,0E0,0E0,0E0,0E0,0E0,0E0,0E0,0E0,0E0,0E0,0E0,0E0,0E0,0E0,0E0,0E0,0E0,0E0,0E0,0E0,0E0],"parents":[2147483647,0,0,1,1,2,2,3,3,4,4,5,5,6,6,7,7,11,11,12,12,13,13,14,14,15,15,17,17,18,18,19,19,21,21,22,22,23,23,24,24,25,25,26,26,27,27,28,28,29,29,30,30,31,31,32,32,33,33,34,34,35,35,36,36,37,37,38,38,39,39,40,40],"right_children":[2,4,6,8,10,12,14,16,-1,-1,-1,18,20,22,24,26,-1,28,30,32,-1,34,36,38,40,42,44,46,48,50,52,54,56,58,60,62,64,66,68,70,72,-1,-1,-1,-1,-1,-1,-1,-1,-1,-1,-1,-1,-1,-1,-1,-1,-1,-1,-1,-1,-1,-1,-1,-1,-1,-1,-1,-1,-1,-1,-1,-1],"split_conditions":[-9.151104E0,-9.151237E0,-9.147277E0,-9.151303E0,1.115E2,3.872828E1,-9.145616E0,-9.151388E0,2.0196281E4,-7.6548257E3,-5.0571547E4,3.8714203E1,7.5E0,3.872545E1,-9.145317E0,2.5E0,-3.2244432E4,1.5E0,1.585E2,-9.149729E0,2.3981102E4,3.871769E1,3.5E0,3.871042E1,-9.145153E0,5.5E0,2.5E0,3.8706795E1,-9.1508045E0,3.5E0,2.415E2,-9.150074E0,1.195E2,-9.146019E0,5E-1,1.215E2,-9.146572E0,7.5E1,9.2E1,3.8735237E1,5.5E0,-1.9601108E3,-1.7935383E4,5.947453E3,-2.94359E3,-7.1373755E3,1.4605879E4,-2.8360998E4,-5.449641E2,4.8988E4,9.7029E3,1.059225E4,-5.7157314E3,-7.517796E2,3.9013676E4,2.292265E3,-6.2486406E3,-6.9271313E3,3.7191565E2,-7.8696753E3,-5.2717586E4,4.396358E3,-2.8157705E4,2.5994389E4,8.283395E3,-1.6000707E4,-3.2068127E3,8.1490503E3,3.016394E4,-5.6296523E3,-4.665437E4,-3.0280957E2,6.292943E3],"split_indices":[4,4,4,4,0,3,4,4,0,0,0,3,1,3,4,1,0,5,0,4,0,3,2,3,4,5,2,3,4,1,0,4,0,4,7,0,4,0,0,3,5,0,0,0,0,0,0,0,0,0,0,0,0,0,0,0,0,0,0,0,0,0,0,0,0,0,0,0,0,0,0,0,0],"split_type":[0,0,0,0,0,0,0,0,0,0,0,0,0,0,0,0,0,0,0,0,0,0,0,0,0,0,0,0,0,0,0,0,0,0,0,0,0,0,0,0,0,0,0,0,0,0,0,0,0,0,0,0,0,0,0,0,0,0,0,0,0,0,0,0,0,0,0,0,0,0,0,0,0],"sum_hessian":[7.38E2,1.78E2,5.6E2,1.75E2,3E0,1.03E2,4.57E2,1.72E2,3E0,2E0,1E0,3.1E1,7.2E1,3.2E1,4.25E2,1.71E2,1E0,1.7E1,1.4E1,7.1E1,1E0,9E0,2.3E1,9E0,4.16E2,7.7E1,9.4E1,7E0,1E1,7E0,7E0,1.2E1,5.9E1,5E0,4E0,1.8E1,5E0,2E0,7E0,4E0,4.12E2,6.9E1,8E0,4.2E1,5.2E1,1E0,6E0,1E0,9E0,6E0,1E0,4E0,3E0,1E1,2E0,2.5E1,3.4E1,4E0,1E0,1E0,3E0,1.1E1,7E0,2E0,3E0,1E0,1E0,1E0,6E0,3E0,1E0,3.75E2,3.7E1],"tree_param":{"num_deleted":"0","num_feature":"10","num_nodes":"73","size_leaf_vector":"0"}},{"base_weights":[-1.08579094E2,-5.1317566E2,6.451244E3,-1.881503E2,-1.759696E4,1.5893555E4,8.2380804E2,1.9059366E2,-1.1099415E4,-5.4270844E4,-1.0014901E4,3.9669307E3,2.7319312E4,-1.851555E4,4.820182E3,-3.4748718E2,9.3048125E3,-2.1223268E4,-3.0724197E3,-2.3761734E4,-2.787986E3,2.4750625E4,-1.7198594E3,-2.54E2,3.1300357E4,-5.803104E3,-2.5042812E4,1.9983732E4,-1.3423195E3,-4.059116E3,8.383848E2,-5.0827993E3,1.7311553E4,-2.983174E4,-1.0505661E4,-1.0716029E4,4.812725E4,-1.8380791E4,4.2872144E3,3.18795E3,-7.4346562E3,2.4778562E4,1.0182969E4,-7.336846E3,1.1862875E4,-2.4933975E3,-2.0605385E4,2.3087611E4,1.6372485E2,-2.9055453E4,4.0929658E3,4.3486895E4,6.168278E3,-5.2776094E3,-3.464087E4,-2.0571016E3,-1.8255188E4,6.4182876E3,-1.9048867E4,-2.7245375E4,-3.058125E2,9.82715E3,-6.36175E3,8.64875E2,3.5425E3,-1.1981875E3,-9.10075E3,-1.1305513E4,4.4090312E3,1.438425E4,-3.52E2],"categories":[],"categories_nodes":[],"categories_segments":[],"categories_sizes":[],"default_left":[true,true,true,true,true,true,true,true,true,false,true,true,true,true,true,true,true,true,true,false,true,false,true,false,false,false,false,true,true,true,true,true,true,true,true,true,false,true,true,true,true,false,false,true,true,false,false,false,false,false,false,false,false,false,false,false,false,false,false,false,false,false,false,false,false,false,false,false,false,false,false],"id":19,"left_children":[1,3,5,7,9,11,13,15,17,-1,19,21,23,25,27,29,31,33,35,-1,37,-1,39,-1,-1,-1,-1,41,43,45,47,49,51,53,55,57,-1,59,61,63,65,-1,-1,67,69,-1,-1,-1,-1,-1,-1,-1,-1,-1,-1,-1,-1,-1,-1,-1,-1,-1,-1,-1,-1,-1,-1,-1,-1,-1,-1],"loss_changes":[1.9644398E9,3.8661844E9,2.271086E9,2.8333663E9,3.0687383E9,2.0707062E9,2.2527455E9,3.2550674E9,1.8028959E9,0E0,1.1248571E9,1.1072214E9,8.873569E8,2.6832742E8,2.27026E9,2.7632827E9,4.350801E9,6.076063E8,5.99314E9,0E0,1.0722662E9,0E0,2.4824826E8,0E0,0E0,0E0,0E0,7.523328E7,1.5117152E9,3.8855322E9,7.1403653E9,3.1994655E9,6.7300705E9,4.0600218E8,3.5446867E8,1.9788739E9,0E0,4.7124742E8,4.7561856E8,8.78112E5,3.0245808E7,0E0,0E0,6.561233E8,1.904142E8,0E0,0E0,0E0,0E0,0E0,0E0,0E0,0E0,0E0,0E0,0E0,0E0,0E0,0E0,0E0,0E0,0E0,0E0,0E0,0E0,0E0,0E0,0E0,0E0,0E0,0E0],"parents":[2147483647,0,0,1,1,2,2,3,3,4,4,5,5,6,6,7,7,8,8,10,10,11,11,12,12,13,13,14,14,15,15,16,16,17,17,18,18,20,20,22,22,27,27,28,28,29,29,30,30,31,31,32,32,33,33,34,34,35,35,37,37,38,38,39,39,40,40,43,43,44,44],"right_children":[2,4,6,8,10,12,14,16,18,-1,20,22,24,26,28,30,32,34,36,-1,38,-1,40,-1,-1,-1,-1,42,44,46,48,50,52,54,56,58,-1,60,62,64,66,-1,-1,68,70,-1,-1,-1,-1,-1,-1,-1,-1,-1,-1,-1,-1,-1,-1,-1,-1,-1,-1,-1,-1,-1,-1,-1,-1,-1,-1],"split_conditions":[2.815E2,2.52E2,3.05E2,5E-1,2.545E2,2.5E0,3.315E2,3.5E0,9.75E1,-3.2562508E4,3.5E0,2.83E2,-9.166723E0,3.23E2,3.56E2,3.8717407E1,1.83E2,3E0,-9.134121E0,-1.4257041E4,3.8721058E1,1.4850376E4,4.5E0,-1.5240001E2,1.8780215E4,-3.4818625E3,-1.5025688E4,4.5E0,5.5E0,2.5E0,3.8718147E1,4E0,1.935E2,4.7E1,-9.138275E0,-9.149271E0,2.8876352E4,2.675E2,4.5E0,3.5E0,2.95E2,1.4867138E4,6.1097812E3,5.08E2,6.055E2,-1.4960386E3,-1.2363231E4,1.3852567E4,9.823492E1,-1.7433273E4,2.4557795E3,2.6092139E4,3.7009668E3,-3.1665657E3,-2.0784523E4,-1.234261E3,-1.0953113E4,3.8509727E3,-1.142932E4,-1.6347226E4,-1.834875E2,5.8962905E3,-3.81705E3,5.1892505E2,2.1255E3,-7.1891254E2,-5.46045E3,-6.783308E3,2.645419E3,8.630551E3,-2.1120001E2],"split_indices":[0,0,0,6,0,5,0,2,0,0,2,0,4,0,0,3,0,5,4,0,3,0,1,0,0,0,0,1,2,2,3,5,0,0,4,4,0,0,1,2,0,0,0,0,0,0,0,0,0,0,0,0,0,0,0,0,0,0,0,0,0,0,0,0,0,0,0,0,0,0,0],"split_type":[0,0,0,0,0,0,0,0,0,0,0,0,0,0,0,0,0,0,0,0,0,0,0,0,0,0,0,0,0,0,0,0,0,0,0,0,0,0,0,0,0,0,0,0,0,0,0,0,0,0,0,0,0,0,0,0,0,0,0,0,0,0,0,0,0,0,0,0,0,0,0],"sum_hessian":[7.38E2,6.96E2,4.2E1,6.84E2,1.2E1,1.5E1,2.7E1,6.62E2,2.2E1,1E0,1.1E1,8E0,7E0,4E0,2.3E1,6.26E2,3.6E1,9E0,1.3E1,3E0,8E0,1E0,7E0,1E0,6E0,2E0,2E0,6E0,1.7E1,1.51E2,4.75E2,1.3E1,2.3E1,4E0,5E0,1.2E1,1E0,2E0,6E0,4E0,3E0,3E0,3E0,1.2E1,5E0,1.39E2,1.2E1,1.3E1,4.62E2,3E0,1E1,6E0,1.7E1,1E0,3E0,3E0,2E0,4E0,8E0,1E0,1E0,4E0,2E0,1E0,3E0,1E0,2E0,9E0,3E0,4E0,1E0],"tree_param":{"num_deleted":"0","num_feature":"10","num_nodes":"71","size_leaf_vector":"0"}},{"base_weights":[-7.670379E1,5.4799253E3,-4.2793222E2,1.2961399E3,4.6983746E4,-2.741414E4,-1.5348093E2,-2.8201199E3,1.8633227E4,1.4161023E4,5.319098E4,-6.099147E3,-5.378775E4,1.2748534E4,-3.620231E2,-9.305415E2,-2.202225E4,3.1455625E3,2.3264854E4,3.8697917E0,-1.0182448E4,-9.641539E3,2.2355004E4,-2.4022578E4,-1.8642429E2,3.203203E2,-1.31423125E4,5.7163438E3,-9.78E2,2.678045E4,2.8234375E3,-1.5114844E2,1.7695312E2,-1.4697656E4,-3.0436145E3,3.1681922E4,-3.7371667E3,-8.9216797E2,-5.825211E4,2.6607594E4,-2.6559705E2,1.2329406E4,-1.4691858E3,-3.6943281E3,-8.5109375E2,-6.2311875E3,6.054375E2,-6.5903984E3,3.1907083E3,-4.249622E2,1.1570198E4],"categories":[],"categories_nodes":[],"categories_segments":[],"categories_sizes":[],"default_left":[true,true,true,true,true,true,true,true,true,false,false,true,false,true,true,true,false,true,true,true,false,true,true,true,true,true,false,false,false,false,false,false,false,false,true,false,true,true,false,false,true,false,false,false,false,false,false,false,false,false,false],"id":20,"left_children":[1,3,5,7,9,11,13,15,17,-1,-1,19,-1,21,23,25,-1,27,29,31,-1,33,35,37,39,41,-1,-1,-1,-1,-1,-1,-1,-1,43,-1,45,47,-1,-1,49,-1,-1,-1,-1,-1,-1,-1,-1,-1,-1],"loss_changes":[1.4444093E9,7.5774674E9,5.149544E9,2.9791025E9,5.902029E7,3.6046193E9,1.8606437E9,1.212243E9,4.9962726E8,0E0,0E0,1.2504882E8,0E0,2.5820303E9,2.8197937E9,4.9353024E8,0E0,3.7582456E7,3.5438566E8,1.08271586E5,0E0,8.79959E7,2.0663944E9,3.9043786E9,1.44005E9,6.6325856E8,0E0,0E0,0E0,0E0,0E0,0E0,0E0,0E0,9.54072E5,0E0,3.648926E7,1.142247E8,0E0,0E0,1.277665E9,0E0,0E0,0E0,0E0,0E0,0E0,0E0,0E0,0E0,0E0],"parents":[2147483647,0,0,1,1,2,2,3,3,4,4,5,5,6,6,7,7,8,8,11,11,13,13,14,14,15,15,17,17,18,18,19,19,21,21,22,22,23,23,24,24,25,25,34,34,36,36,37,37,40,40],"right_children":[2,4,6,8,10,12,14,16,18,-1,-1,20,-1,22,24,26,-1,28,30,32,-1,34,36,38,40,42,-1,-1,-1,-1,-1,-1,-1,-1,44,-1,46,48,-1,-1,50,-1,-1,-1,-1,-1,-1,-1,-1,-1,-1],"split_conditions":[3.8709766E1,3.8709293E1,3.8710266E1,4.5E0,7.8E1,1.175E2,3.8710964E1,3.8709152E1,-9.148774E0,8.496614E3,3.191459E4,7.25E1,-3.227265E4,5.1E1,3.8711243E1,-9.14249E0,-1.3213351E4,2.535E2,-9.138477E0,3.55E1,-6.109469E3,3.95E1,1.715E2,8.5E1,5E-1,3.8706367E1,-7.8853877E3,3.4298064E3,-5.8680005E2,1.60682705E4,1.6940626E3,-9.0689064E1,1.0617188E2,-8.818594E3,4.45E1,1.9009154E4,2.5E2,3.6E1,-3.4951266E4,1.5964557E4,5E-1,7.397644E3,-8.8151154E2,-2.216597E3,-5.1065628E2,-3.7387126E3,3.632625E2,-3.9542393E3,1.914425E3,-2.5497733E2,6.942119E3],"split_indices":[3,3,3,5,0,0,3,3,4,0,0,0,0,0,3,4,0,0,4,0,0,0,0,0,2,3,0,0,0,0,0,0,0,0,0,0,0,0,0,0,8,0,0,0,0,0,0,0,0,0,0],"split_type":[0,0,0,0,0,0,0,0,0,0,0,0,0,0,0,0,0,0,0,0,0,0,0,0,0,0,0,0,0,0,0,0,0,0,0,0,0,0,0,0,0,0,0,0,0,0,0,0,0,0,0],"sum_hessian":[7.38E2,4.3E1,6.95E2,4E1,3E0,6E0,6.89E2,3.3E1,7E0,1E0,2E0,4E0,2E0,1E1,6.79E2,3.1E1,2E0,2E0,5E0,2E0,2E0,3E0,7E0,4E0,6.75E2,2.9E1,2E0,1E0,1E0,4E0,1E0,1E0,1E0,1E0,2E0,5E0,2E0,3E0,1E0,1E0,6.74E2,3E0,2.6E1,1E0,1E0,1E0,1E0,1E0,2E0,6.66E2,8E0],"tree_param":{"num_deleted":"0","num_feature":"10","num_nodes":"51","size_leaf_vector":"0"}},{"base_weights":[-3.366238E1,-3.9407927E3,3.809862E2,-6.931366E3,1.1337142E4,-1.2982373E3,1.3358114E3,-1.1610156E3,-1.2290694E4,-2.7103633E3,1.6325239E4,-5.0865942E2,-2.7839912E4,2.4215648E4,5.0149332E2,2.6123894E3,-1.6696701E4,-1.645077E4,-2.8931076E2,-5.5074946E3,2.8205156E3,2.0830389E4,-9.837977E3,-1.5733752E3,1.1788258E4,9.479442E3,-4.4671543E4,9.049375E3,4.545016E4,1.187988E4,-1.07686386E2,-4.363631E3,9.390533E3,-4.265379E3,-2.7692896E4,-3.9838396E3,-2.5731191E4,-1.5321137E4,9.773458E3,-1.0580469E2,-8.1354375E3,2.646591E4,8.568391E3,-1.0930286E3,-3.578066E4,2.0128264E4,-9.629802E3,-5.540211E3,1.9779375E4,-5.245768E4,-6.7435E3,1.9103188E4,-8.3036456E2,-1.4869359E4,6.0495938E4,2.149679E4,-2.3185584E4,-3.1583745E3,2.5930073E3,1.6712848E2,-1.1654271E4,2.894411E4,5.3457266E3,1.2386719E2,-5.7830835E3,-6.053789E3,8.337828E3,-2.776972E4,-9.6661875E3,-1.7619484E4,-4.193047E3,-6.6893438E3,1.4411888E4,-5.7379062E3,1.5263125E4,-1.792722E3,2.0148168E4,8.949718E3,4.5827203E4,-1.5777388E4,1.05340625E4,-1.3055469E4,1.57332295E4,7.0861766E4,9.4963125E3,3.7405625E3,2.666943E4,-2.8122875E4,-1.6982109E3,-1.7365016E3,-2.78635E4,9.271915E4,1.2741116E3],"categories":[],"categories_nodes":[],"categories_segments":[],"categories_sizes":[],"default_left":[true,true,true,true,true,true,true,true,true,true,true,true,true,true,true,true,true,true,true,true,false,true,false,true,true,true,true,true,true,true,true,true,true,true,false,true,true,true,true,false,false,false,true,true,false,true,true,false,false,false,false,false,true,false,true,true,true,true,true,false,false,false,false,false,false,false,false,false,false,false,false,false,false,false,false,false,false,false,false,false,false,false,false,false,false,false,false,false,false,false,false,false,false],"id":21,"left_children":[1,3,5,7,9,11,13,15,17,19,21,23,25,27,29,31,33,35,37,39,-1,41,-1,43,45,47,49,51,53,55,57,59,61,63,-1,65,67,69,71,-1,-1,-1,73,75,-1,77,79,-1,-1,-1,-1,-1,81,-1,83,85,87,89,91,-1,-1,-1,-1,-1,-1,-1,-1,-1,-1,-1,-1,-1,-1,-1,-1,-1,-1,-1,-1,-1,-1,-1,-1,-1,-1,-1,-1,-1,-1,-1,-1,-1,-1],"loss_changes":[1.1988874E9,3.3223808E9,1.0743868E9,1.8407043E9,8.856357E8,5.0771886E9,8.1378964E9,1.8028547E9,1.5422976E9,7.752384E7,1.2661914E9,3.1211139E9,4.821888E9,4.4172513E9,2.8644524E9,1.2232896E9,7.007844E8,2.5573652E9,1.5113187E9,4.1395584E7,0E0,3.246505E8,0E0,3.5578831E9,3.5881597E9,5.7425574E8,1.1204485E9,1.009884E9,6.3466844E9,7.5799967E9,3.2461292E9,4.318251E8,8.720768E8,2.7589016E7,0E0,3.3094163E8,1.5581184E8,2.7553024E7,5.548842E8,0E0,0E0,0E0,4.7106685E8,3.2605112E9,0E0,3.6095442E9,9.1016416E8,0E0,0E0,0E0,0E0,0E0,1.4202474E9,0E0,1.9671265E9,1.4604165E9,4.814958E8,6.4490276E9,2.4721306E10,0E0,0E0,0E0,0E0,0E0,0E0,0E0,0E0,0E0,0E0,0E0,0E0,0E0,0E0,0E0,0E0,0E0,0E0,0E0,0E0,0E0,0E0,0E0,0E0,0E0,0E0,0E0,0E0,0E0,0E0,0E0,0E0,0E0,0E0],"parents":[2147483647,0,0,1,1,2,2,3,3,4,4,5,5,6,6,7,7,8,8,9,9,10,10,11,11,12,12,13,13,14,14,15,15,16,16,17,17,18,18,19,19,21,21,23,23,24,24,25,25,26,26,27,27,28,28,29,29,30,30,31,31,32,32,33,33,35,35,36,36,37,37,38,38,42,42,43,43,45,45,46,46,52,52,54,54,55,55,56,56,57,57,58,58],"right_children":[2,4,6,8,10,12,14,16,18,20,22,24,26,28,30,32,34,36,38,40,-1,42,-1,44,46,48,50,52,54,56,58,60,62,64,-1,66,68,70,72,-1,-1,-1,74,76,-1,78,80,-1,-1,-1,-1,-1,82,-1,84,86,88,90,92,-1,-1,-1,-1,-1,-1,-1,-1,-1,-1,-1,-1,-1,-1,-1,-1,-1,-1,-1,-1,-1,-1,-1,-1,-1,-1,-1,-1,-1,-1,-1,-1,-1,-1],"split_conditions":[5.05E1,-9.129372E0,3.8722652E1,3.8722572E1,2.85E1,3.872237E1,3.8723225E1,-9.133093E0,-9.138895E0,3.871213E1,3.8736755E1,-9.1258955E0,2.5E0,3.8723045E1,5.85E1,3.8713142E1,3.8713528E1,-9.146793E0,3.8727882E1,3.8711132E1,1.6923094E3,-9.12173E0,-5.902786E3,-9.127108E0,-9.120655E0,1.005E2,1.635E2,-9.152189E0,8.6E1,3.8740974E1,3.8736317E1,1.5E0,-9.14643E0,3.8710693E1,-1.6615738E4,3.8746178E1,4.95E1,3.872484E1,3.7E1,-6.3482815E1,-4.8812627E3,1.5879547E4,-9.115561E0,-9.129578E0,-2.1468396E4,1.5E0,4.5E0,-3.3241267E3,1.1867625E4,-3.147461E4,-4.0461E3,1.1461913E4,-9.135725E0,-8.921616E3,3.8723183E1,5.35E1,5.65E1,3.873491E1,3.8736496E1,1.0027709E2,-6.992563E3,1.7366467E4,3.207436E3,7.432031E1,-3.4698503E3,-3.6322737E3,5.0026973E3,-1.6661834E4,-5.799713E3,-1.0571691E4,-2.5158281E3,-4.0136064E3,8.647133E3,-3.442744E3,9.157875E3,-1.0756333E3,1.2088901E4,5.369831E3,2.7496322E4,-9.466433E3,6.320438E3,-7.8332817E3,9.439938E3,4.2517062E4,5.6977876E3,2.2443376E3,1.6001658E4,-1.6873727E4,-1.0189266E3,-1.041901E3,-1.6718102E4,5.5631492E4,7.64467E2],"split_indices":[0,4,3,3,0,3,3,4,4,3,3,4,5,3,0,3,3,4,3,3,0,4,0,4,4,0,0,4,0,3,3,5,4,3,0,3,0,3,0,0,0,0,4,4,0,2,2,0,0,0,0,0,4,0,3,0,0,3,3,0,0,0,0,0,0,0,0,0,0,0,0,0,0,0,0,0,0,0,0,0,0,0,0,0,0,0,0,0,0,0,0,0,0],"split_type":[0,0,0,0,0,0,0,0,0,0,0,0,0,0,0,0,0,0,0,0,0,0,0,0,0,0,0,0,0,0,0,0,0,0,0,0,0,0,0,0,0,0,0,0,0,0,0,0,0,0,0,0,0,0,0,0,0,0,0,0,0,0,0,0,0,0,0,0,0,0,0,0,0,0,0,0,0,0,0,0,0,0,0,0,0,0,0,0,0,0,0,0,0],"sum_hessian":[7.38E2,7E1,6.68E2,5.9E1,1.1E1,2.42E2,4.26E2,2.9E1,3E1,3E0,8E0,2.36E2,6E0,1.4E1,4.12E2,2.4E1,5E0,2.2E1,8E0,2E0,1E0,7E0,1E0,2.18E2,1.8E1,2E0,4E0,9E0,5E0,2E1,3.92E2,1.2E1,1.2E1,3E0,2E0,1E1,1.2E1,3E0,5E0,1E0,1E0,4E0,3E0,2.16E2,2E0,1.3E1,5E0,1E0,1E0,3E0,1E0,4E0,5E0,1E0,4E0,1.6E1,4E0,1.84E2,2.08E2,8E0,4E0,1E0,1.1E1,1E0,2E0,9E0,1E0,1E1,2E0,2E0,1E0,1E0,4E0,1E0,2E0,2.1E2,6E0,1E1,3E0,4E0,1E0,3E0,2E0,3E0,1E0,4E0,1.2E1,3E0,1E0,1.75E2,9E0,2E0,2.06E2],"tree_param":{"num_deleted":"0","num_feature":"10","num_nodes":"93","size_leaf_vector":"0"}},{"base_weights":[6.782631E1,-5.200425E1,1.1028844E4,-2.1921969E4,7.847918E0,2.0106863E4,-3.0658906E3,-6.063758E1,1.6660541E4,1.4635312E3,2.4391812E4,-3.7659167E3,-4.6290625E2,4.470834E1,-1.5331669E4,-1.6965427E2,8.021006E3,-2.2023031E4,-3.5164167E3,3.752678E2,-5.947276E3,2.4569955E4,3.528125E2,-7.865625E1,-5.1759688E3],"categories":[],"categories_nodes":[],"categories_segments":[],"categories_sizes":[],"default_left":[true,true,true,false,true,true,true,true,false,false,false,false,false,true,true,true,true,false,true,false,false,false,false,false,false],"id":22,"left_children":[1,3,5,-1,7,9,11,13,-1,-1,-1,-1,-1,15,17,19,21,-1,23,-1,-1,-1,-1,-1,-1],"loss_changes":[9.716631E8,9.5921075E8,1.0859452E9,0E0,8.353564E8,3.6269632E8,5.376208E6,1.1740691E9,0E0,0E0,0E0,0E0,0E0,1.2412942E9,3.1683686E8,2.2283405E9,2.4014449E9,0E0,1.6498116E7,0E0,0E0,0E0,0E0,0E0,0E0],"parents":[2147483647,0,0,1,1,2,2,4,4,5,5,6,6,7,7,13,13,14,14,15,15,16,16,18,18],"right_children":[2,4,6,-1,8,10,12,14,-1,-1,-1,-1,-1,16,18,20,22,-1,24,-1,-1,-1,-1,-1,-1],"split_conditions":[7.5E0,-5E-1,1.875E2,-1.3153182E4,3.876765E1,3.8706917E1,9.5E0,3.876684E1,9.996325E3,8.781188E2,1.4635088E4,-2.25955E3,-2.7774377E2,3.8760197E1,2.235E2,3.874597E1,3.876304E1,-1.3213819E4,2.9E2,2.2516069E2,-3.5683657E3,1.4741974E4,2.1168752E2,-4.7193752E1,-3.1055813E3],"split_indices":[1,5,0,0,3,3,1,3,0,0,0,0,0,3,0,3,3,0,0,0,0,0,0,0,0],"split_type":[0,0,0,0,0,0,0,0,0,0,0,0,0,0,0,0,0,0,0,0,0,0,0,0,0],"sum_hessian":[7.38E2,7.31E2,7E0,1E0,7.3E2,4E0,3E0,7.28E2,2E0,1E0,3E0,2E0,1E0,7.24E2,4E0,7.06E2,1.8E1,2E0,2E0,6.46E2,6E1,5E0,1.3E1,1E0,1E0],"tree_param":{"num_deleted":"0","num_feature":"10","num_nodes":"25","size_leaf_vector":"0"}},{"base_weights":[3.391436E1,-2.4304253E1,2.1519625E4,-2.262978E3,4.805779E2,-1.1838917E3,-1.0886016E4,1.9725545E4,1.2271079E2,-2.321378E3,2.5889559E4,-1.6609037E4,8.994551E3,3.573615E4,-1.7217055E4,-1.0697547E4,4.220904E2,-4.6588164E3,6.324399E2,4.917825E4,7.762824E3,9.707578E3,-1.98876E4,1.3608427E4,-2.403539E3,-1.0595573E3,4.8184645E4,-2.9846443E4,1.0315555E4,1.9948734E4,-1.9307361E4,1.4884498E3,-2.1671963E3,-1.3885387E3,-2.088034E4,-3.9131833E3,6.733391E3,1.2977594E4,-3.9207422E3,-3.0884998E4,-5.568935E3,4.9718438E3,-6.5811797E3,6.570672E4,8.747E3,2.2484396E4,6.150875E3,-2.1939717E4,-7.889629E3,-1.1872483E2,1.5956894E4,-4.786496E4,-1.9117465E2],"categories":[],"categories_nodes":[],"categories_segments":[],"categories_sizes":[],"default_left":[true,true,false,true,true,true,true,true,true,true,true,true,true,true,true,true,true,true,true,false,true,false,true,false,false,true,true,false,false,true,true,true,true,false,false,false,false,false,false,false,false,false,false,false,false,false,false,false,false,false,false,false,false],"id":23,"left_children":[1,3,-1,5,7,9,11,13,15,17,19,21,23,25,27,29,31,33,35,-1,37,-1,39,-1,-1,41,43,-1,-1,45,47,49,51,-1,-1,-1,-1,-1,-1,-1,-1,-1,-1,-1,-1,-1,-1,-1,-1,-1,-1,-1,-1],"loss_changes":[9.2577446E8,8.3529555E8,0E0,1.2521097E9,4.149731E9,3.816229E9,1.8563489E9,7.122219E9,1.9250474E9,8.178229E8,1.7267003E9,1.2288358E9,2.4351408E8,3.7173494E9,1.6995437E9,4.606872E9,1.5991205E9,3.4713426E9,1.496291E9,0E0,2.949525E8,0E0,1.5586939E9,0E0,0E0,1.3269434E8,3.5684608E9,0E0,0E0,5.02784E5,2.1643264E8,9.536387E9,1.5249589E10,0E0,0E0,0E0,0E0,0E0,0E0,0E0,0E0,0E0,0E0,0E0,0E0,0E0,0E0,0E0,0E0,0E0,0E0,0E0,0E0],"parents":[2147483647,0,0,1,1,3,3,4,4,5,5,6,6,7,7,8,8,9,9,10,10,11,11,12,12,13,13,14,14,15,15,16,16,17,17,18,18,20,20,22,22,25,25,26,26,29,29,30,30,31,31,32,32],"right_children":[2,4,-1,6,8,10,12,14,16,18,20,22,24,26,28,30,32,34,36,-1,38,-1,40,-1,-1,42,44,-1,-1,46,48,50,52,-1,-1,-1,-1,-1,-1,-1,-1,-1,-1,-1,-1,-1,-1,-1,-1,-1,-1,-1,-1],"split_conditions":[1.9E1,6.05E1,1.2911775E4,5.95E1,6.25E1,5.75E1,-9.131268E0,-9.131977E0,6.55E1,-9.138994E0,3.8722786E1,5E-1,3.872735E1,3.8715714E1,-9.129556E0,-9.153551E0,-9.135754E0,-9.143229E0,3.872101E1,2.9506951E4,5.85E1,5.824547E3,1.5E0,8.165056E3,-1.4421235E3,1E0,3.872159E1,-1.7907867E4,6.189333E3,6.35E1,-9.1376095E0,-9.140373E0,-9.135208E0,-8.331232E2,-1.2528204E4,-2.3479102E3,4.040035E3,7.7865566E3,-2.3524453E3,-1.8531E4,-3.341361E3,2.9831064E3,-3.948708E3,3.942403E4,5.2482E3,1.3490639E4,3.6905251E3,-1.3163831E4,-4.7337773E3,-7.12349E1,9.574137E3,-2.8718979E4,-1.14704796E2],"split_indices":[5,0,0,0,0,0,4,4,0,4,3,1,3,3,4,4,4,4,3,0,0,0,1,0,0,1,3,0,0,0,4,4,4,0,0,0,0,0,0,0,0,0,0,0,0,0,0,0,0,0,0,0,0],"split_type":[0,0,0,0,0,0,0,0,0,0,0,0,0,0,0,0,0,0,0,0,0,0,0,0,0,0,0,0,0,0,0,0,0,0,0,0,0,0,0,0,0,0,0,0,0,0,0,0,0,0,0,0,0],"sum_hessian":[7.38E2,7.37E2,1E0,1.35E2,6.02E2,1.21E2,1.4E1,1E1,5.92E2,1.17E2,4E0,1.1E1,3E0,7E0,3E0,1.5E1,5.77E2,6.5E1,5.2E1,1E0,3E0,1E0,1E1,2E0,1E0,2E0,5E0,2E0,1E0,3E0,1.2E1,4.09E2,1.68E2,5.5E1,1E1,3E1,2.2E1,2E0,1E0,5E0,5E0,1E0,1E0,3E0,2E0,2E0,1E0,9E0,3E0,3.69E2,4E1,6E0,1.62E2],"tree_param":{"num_deleted":"0","num_feature":"10","num_nodes":"53","size_leaf_vector":"0"}},{"base_weights":[6.6013016E1,6.610675E2,-1.9758567E3,-2.9870447E2,7.239488E3,-1.2280369E4,6.531679E2,-1.3612614E2,-2.0455031E4,5.6335913E3,4.2819207E4,2.4977312E4,-1.5390766E4,1.3257546E4,-1.806208E3,-2.7546524E2,1.7131117E4,-4.280678E4,1.2511459E3,1.6764279E3,2.1622299E4,5.4059844E4,1.0148969E4,-1.1319698E4,-5.0957855E4,2.1409355E4,1.3304375E3,1.2373695E4,-4.273137E3,7.3938245E2,-3.1608423E3,-3.38575E3,2.511199E4,-3.7694688E3,5.6661875E3,1.0731671E4,-6.0150723E3,3.5903806E3,6.57945E4,-7.0026094E3,-4.7825957E4,-5.7546875E3,-7.066209E4,5.789875E3,3.0442797E4,-8.270542E3,4.7695E3,-2.4830166E4,1.899222E4,-3.759925E4,-3.1753323E3,-5.0050516E2,1.2898885E4,1.6401979E4,-4.7650703E3,7.4565156E3,3.0191469E4,-2.5759148E3,1.8713541E4,-3.1407036E3,-4.754025E4,-7.558229E3,3.585275E4,-8.92935E3,2.2489688E4,-4.1775835E3,1.1828E4,-1.58525E3,7.158625E3,1.17909375E4,-4.9056188E4,3.8167516E4,-8.3691875E3,1.052875E3,-5.747175E4,-1.3877929E4,-1.1536744E3],"categories":[],"categories_nodes":[],"categories_segments":[],"categories_sizes":[],"default_left":[true,true,true,true,true,true,true,true,true,true,true,false,true,true,true,true,true,false,true,true,true,false,false,true,true,true,true,true,true,true,true,false,true,false,false,true,true,true,false,true,false,false,false,true,false,false,true,true,true,true,true,false,false,false,false,false,false,false,false,false,false,false,false,false,false,false,false,false,false,false,false,false,false,false,false,false,false],"id":24,"left_children":[1,3,5,7,9,11,13,15,17,19,21,-1,23,25,27,29,31,-1,33,35,37,-1,-1,39,41,43,45,47,49,51,53,-1,55,-1,-1,57,59,61,-1,63,-1,-1,-1,65,-1,-1,67,69,71,73,75,-1,-1,-1,-1,-1,-1,-1,-1,-1,-1,-1,-1,-1,-1,-1,-1,-1,-1,-1,-1,-1,-1,-1,-1,-1,-1],"loss_changes":[8.991561E8,3.620238E9,4.532653E9,1.6381599E9,3.9278623E9,4.324165E9,4.178257E9,1.2022336E9,1.9959039E9,4.4549847E9,5.5048294E8,0E0,4.0541548E9,2.1096123E9,4.0053827E9,1.451902E9,7.4086195E8,0E0,8.793306E7,4.104348E9,1.0912132E10,0E0,0E0,4.3909233E9,2.2623877E9,1.6565606E9,3.6949E8,4.657337E9,3.4277793E9,5.539997E9,4.1261268E9,0E0,4.24128E7,0E0,0E0,2.916774E9,3.6681403E9,4.228601E9,0E0,1.7913478E9,0E0,0E0,0E0,4.10827E8,0E0,0E0,1.3302946E8,3.24146E9,8.190569E9,2.3671104E9,2.0389023E9,0E0,0E0,0E0,0E0,0E0,0E0,0E0,0E0,0E0,0E0,0E0,0E0,0E0,0E0,0E0,0E0,0E0,0E0,0E0,0E0,0E0,0E0,0E0,0E0,0E0,0E0],"parents":[2147483647,0,0,1,1,2,2,3,3,4,4,5,5,6,6,7,7,8,8,9,9,10,10,12,12,13,13,14,14,15,15,16,16,18,18,19,19,20,20,23,23,24,24,25,25,26,26,27,27,28,28,29,29,30,30,32,32,35,35,36,36,37,37,39,39,43,43,46,46,47,47,48,48,49,49,50,50],"right_children":[2,4,6,8,10,12,14,16,18,20,22,-1,24,26,28,30,32,-1,34,36,38,-1,-1,40,42,44,46,48,50,52,54,-1,56,-1,-1,58,60,62,-1,64,-1,-1,-1,66,-1,-1,68,70,72,74,76,-1,-1,-1,-1,-1,-1,-1,-1,-1,-1,-1,-1,-1,-1,-1,-1,-1,-1,-1,-1,-1,-1,-1,-1,-1,-1],"split_conditions":[1.64E2,2.5E0,1.81E2,1.615E2,-9.122675E0,1.5E0,3.871836E1,5E-1,1.625E2,1.565E2,1.31E2,1.4986388E4,1.79E2,2.655E2,1.91E2,1.095E2,3.8715168E1,-2.568407E4,2.5E0,-9.143979E0,-9.14002E0,3.2435908E4,6.0893813E3,-9.131264E0,3.5E0,3.871163E1,3.5E0,5E-1,1.945E2,1.005E2,5E-1,-2.0314501E3,8.5E1,-2.2616814E3,3.3997126E3,-9.15127E0,3.8748753E1,3.8748207E1,3.9476703E4,3.8762203E1,-2.8695576E4,-3.4528127E3,-4.2397258E4,2.05E2,1.826568E4,-4.962325E3,5E-1,3.8737823E1,3.874054E1,1.93E2,3.8722443E1,-3.003031E2,7.739331E3,9.8411875E3,-2.8590422E3,4.4739097E3,1.8114883E4,-1.545549E3,1.1228125E4,-1.8844222E3,-2.852415E4,-4.5349375E3,2.151165E4,-5.35761E3,1.3493813E4,-2.5065503E3,7.0968003E3,-9.5115E2,4.2951753E3,7.074563E3,-2.9433713E4,2.290051E4,-5.0215127E3,6.3172504E2,-3.448305E4,-8.326758E3,-6.922047E2],"split_indices":[0,2,0,0,4,2,3,8,0,0,0,0,0,0,0,0,3,0,1,4,4,0,0,4,1,3,2,5,0,0,5,0,0,0,0,4,3,3,0,3,0,0,0,0,0,0,7,3,3,0,3,0,0,0,0,0,0,0,0,0,0,0,0,0,0,0,0,0,0,0,0,0,0,0,0,0,0],"split_type":[0,0,0,0,0,0,0,0,0,0,0,0,0,0,0,0,0,0,0,0,0,0,0,0,0,0,0,0,0,0,0,0,0,0,0,0,0,0,0,0,0,0,0,0,0,0,0,0,0,0,0,0,0,0,0,0,0,0,0,0,0,0,0,0,0,0,0,0,0,0,0,0,0,0,0,0,0],"sum_hessian":[7.38E2,5.72E2,1.66E2,5E2,7.2E1,3.3E1,1.33E2,4.97E2,3E0,7E1,2E0,2E0,3.1E1,2.1E1,1.12E2,4.94E2,3E0,1E0,2E0,5.7E1,1.3E1,1E0,1E0,2.9E1,2E0,1.2E1,9E0,1.6E1,9.6E1,3.66E2,1.28E2,1E0,2E0,1E0,1E0,2.6E1,3.1E1,1E1,3E0,2.7E1,2E0,1E0,1E0,5E0,7E0,2E0,7E0,2E0,1.4E1,2E0,9.4E1,3.33E2,3.3E1,9E0,1.19E2,1E0,1E0,1E1,1.6E1,3E1,1E0,8E0,2E0,2.6E1,1E0,2E0,3E0,2E0,5E0,1E0,1E0,8E0,6E0,1E0,1E0,1.4E1,8E1],"tree_param":{"num_deleted":"0","num_feature":"10","num_nodes":"77","size_leaf_vector":"0"}},{"base_weights":[3.5956085E1,4.733905E3,-2.6103485E2,4.2954438E4,2.8451846E3,-1.3958179E4,-1.2164205E2,-1.2719531E3,5.862002E3,-1.6821562E3,-2.9752156E4,-4.259848E2,4.583122E3,2.6069219E3,-8.299585E3,1.1022662E4,2.2677139E3,1.6104584E3,-4.4273853E3,2.7675055E2,-3.9491013E3,2.5207125E4,2.9207437E3,1.3485309E4,-2.001125E3,4.5582656E3,-1.12089375E4,-9.780625E2,1.4150102E4,-4.0671875E3,4.7216133E3,-7.8849713E2,2.405938E3,2.9554242E2,-8.360251E3,-3.444725E3,4.8811934E3,-2.7234375E3,1.980937E4,-1.163685E4,6.3555E3,-1.6019344E4,-1.0454166E3,-1.6988438E3,2.1175E2,1.601875E2,1.8780041E4,6.8186562E3,-8.5033125E3,6.6530537E3,-7.9453125E2,-4.1117062E2,-3.444643E4,3.6007158E3,-1.6382515E4,-4.794244E3,6.8002476E3,-3.1288766E4,